{"learner":{"attributes":{"scikit_learn":"{\"_estimator_type\": \"classifier\"}"},"feature_names":["dur","proto","service","state","spkts","dpkts","sbytes","dbytes","rate","sload","dload","sloss","dloss","sinpkt","dinpkt","sjit","djit","smean","dmean","trans_depth","response_body_len","ct_srv_src","ct_dst_ltm","ct_src_dport_ltm","ct_dst_sport_ltm","ct_dst_src_ltm","is_ftp_login","ct_ftp_cmd","ct_flw_http_mthd","ct_src_ltm","ct_srv_dst","is_sm_ips_ports"],"feature_types":["float","int","int","int","int","int","int","int","float","float","float","int","int","float","float","float","float","int","int","int","int","int","int","int","int","int","int","int","int","int","int","int"],"gradient_booster":{"model":{"cats":{"enc":[],"feature_segments":[],"sorted_idx":[]},"gbtree_model_param":{"num_parallel_tree":"1","num_trees":"300"},"iteration_indptr":[0,1,2,3,4,5,6,7,8,9,10,11,12,13,14,15,16,17,18,19,20,21,22,23,24,25,26,27,28,29,30,31,32,33,34,35,36,37,38,39,40,41,42,43,44,45,46,47,48,49,50,51,52,53,54,55,56,57,58,59,60,61,62,63,64,65,66,67,68,69,70,71,72,73,74,75,76,77,78,79,80,81,82,83,84,85,86,87,88,89,90,91,92,93,94,95,96,97,98,99,100,101,102,103,104,105,106,107,108,109,110,111,112,113,114,115,116,117,118,119,120,121,122,123,124,125,126,127,128,129,130,131,132,133,134,135,136,137,138,139,140,141,142,143,144,145,146,147,148,149,150,151,152,153,154,155,156,157,158,159,160,161,162,163,164,165,166,167,168,169,170,171,172,173,174,175,176,177,178,179,180,181,182,183,184,185,186,187,188,189,190,191,192,193,194,195,196,197,198,199,200,201,202,203,204,205,206,207,208,209,210,211,212,213,214,215,216,217,218,219,220,221,222,223,224,225,226,227,228,229,230,231,232,233,234,235,236,237,238,239,240,241,242,243,244,245,246,247,248,249,250,251,252,253,254,255,256,257,258,259,260,261,262,263,264,265,266,267,268,269,270,271,272,273,274,275,276,277,278,279,280,281,282,283,284,285,286,287,288,289,290,291,292,293,294,295,296,297,298,299,300],"tree_info":[0,0,0,0,0,0,0,0,0,0,0,0,0,0,0,0,0,0,0,0,0,0,0,0,0,0,0,0,0,0,0,0,0,0,0,0,0,0,0,0,0,0,0,0,0,0,0,0,0,0,0,0,0,0,0,0,0,0,0,0,0,0,0,0,0,0,0,0,0,0,0,0,0,0,0,0,0,0,0,0,0,0,0,0,0,0,0,0,0,0,0,0,0,0,0,0,0,0,0,0,0,0,0,0,0,0,0,0,0,0,0,0,0,0,0,0,0,0,0,0,0,0,0,0,0,0,0,0,0,0,0,0,0,0,0,0,0,0,0,0,0,0,0,0,0,0,0,0,0,0,0,0,0,0,0,0,0,0,0,0,0,0,0,0,0,0,0,0,0,0,0,0,0,0,0,0,0,0,0,0,0,0,0,0,0,0,0,0,0,0,0,0,0,0,0,0,0,0,0,0,0,0,0,0,0,0,0,0,0,0,0,0,0,0,0,0,0,0,0,0,0,0,0,0,0,0,0,0,0,0,0,0,0,0,0,0,0,0,0,0,0,0,0,0,0,0,0,0,0,0,0,0,0,0,0,0,0,0,0,0,0,0,0,0,0,0,0,0,0,0,0,0,0,0,0,0,0,0,0,0,0,0,0,0,0,0,0,0,0,0,0,0,0,0,0,0,0,0,0,0],"trees":[{"base_weights":[-4.1615202E-8,7.8340507E-1,-2.5561254E0,1.184555E-1,1.3053708E0,-3.1183724E0,-6.1857146E-1,1.0583786E0,-6.9280213E-1,1.3830867E0,-1.4208327E-1,1.1588818E0,-3.1228373E0,5.9518397E-1,-2.897854E0,-4.667182E-1,1.1731149E0,-2.7037153E0,-4.533506E-1,-1.9586177E-1,1.453188E0,5.370509E-1,-1.3863463E0,1.8830298E-1,4.290296E-2,-1.3505584E0,-3.1271605E0,1.2033168E0,-2.3311055E0,1.2689703E0,-3.0949717E0,1.2592087E0,-2.7672303E0,-3.1142437E0,-1.5284297E0,-2.5995622E0,-3.0150777E-1,4.6857323E-2,-4.605315E-1,1.4646169E0,8.3277977E-1,9.1173315E-1,1.8150544E-1,-1.8954064E0,-3.3418882E-1,1.9021268E-1,-4.1929874E-1,-4.6939883E-1,-2.51141E0,1.3195724E0,-3.2998344E-1,1.2431868E0,-2.5787709E0,1.387286E0,-2.5402817E-1,-3.1188395E0,4.464793E-1,1.2785554E0,7.01467E-1,1.7252459E-1,-3.00209E0,-4.6851608E-1,-5.7110436E-2,-5.7616997E-1,-2.8101828E0,-2.9287155E0,2.1337514E-1,-1.3317817E-1,-1.4478627E0,5.3812194E-1,-7.3611885E-1,-3.1079906E-1,1.4652336E0,1.352706E0,1.8753026E-1,6.238836E-1,1.1926682E0,3.6198118E-1,-2.982069E-1,-2.557107E-1,-2.226723E0,-7.471096E-2,-4.1894528E-1,-5.113258E-2,-2.8891943E0,1.3683101E0,-4.7369224E-1,5.852374E-1,-1.5997534E0,-5.450835E-3,2.0469232E-1,-2.8963866E0,4.8425394E-1,2.1279785E-1,4.290296E-2,-1.7273018E-1,1.1478068E-1,-4.6872833E-1,4.290296E-2,1.5931237E-1,-7.913342E-2,1.224217E0,1.424326E0,-2.767763E0,1.4224684E0,1.5094623E-1,-3.0865185E0,-1.1893778E0,2.1211699E-1,-4.5204344E-1,1.734497E-1,1.1936414E0,-3.1057935E0,8.9952606E-1,-2.8791487E-1,-7.4186236E-1,-2.497914E0,1.3600224E0,3.5384578E-1,-1.0709327E0,4.5113105E-1,2.1979529E-1,4.290296E-2,2.0470251E-1,4.436501E-2,3.7178564E-1,-1.1395322E0,1.1929306E0,3.2407114E-1,1.3246076E0,9.232658E-1,4.4108984E-1,-7.6986057E-1,-1.7583575E0,-1.5719984E-1,-1.4894942E0,1.4909883E-1,-2.288195E0,-7.2648335E-1,-9.9827963E-1,2.7971113E-1,1.5931237E-1,-2.6583886E-1,-1.5858588E-1,-4.495835E-1,3.7008315E-1,1.4176123E0,1.965874E-1,-1.3070024E0,1.0217814E0,-1.6927118E0,-2.5668497E0,-3.9808026E-1,-2.9490647E0,-6.872209E-1,1.0857314E0,-1.679545E0,1.9809073E-1,1.095353E-1,-3.6478123E-1,2.1525869E-1,1.4584047E-1,-4.5472148E-1,-2.4369003E-2,2.1614212E-1,-4.6554485E-1,-1.0085246E-1,8.330926E-2,-2.0342018E-1,2.0469232E-1,9.15839E-3,-2.8974745E-2,-4.67108E-1,1.6980283E-1,-3.7042093E-1,5.2277964E-2,-9.8363034E-2,-1.8564436E-1,3.6936816E-2,1.351423E-3,-4.2734906E-1,-2.6583886E-1,2.1710123E-1,3.6387976E-2,1.17165916E-1,-1.05863504E-1,-3.0314064E-1,1.0072174E-1,-3.5350376E-1,2.8376348E-2,1.6229329E-1,-3.4137845E-1,-5.3102937E-2,1.8646006E-1,6.304221E-2,5.785892E-2,-1.9846678E-1,2.0017627E-1,4.290296E-2,9.07079E-2,1.7580059E-1,3.9310023E-2,1.1458514E-1,6.2285356E-2,-2.6761454E-1,-3.1963554E-1,-4.5468014E-2,-7.179231E-2,3.495667E-2,-2.702697E-1,-2.4369003E-2,1.3760787E-1,-1.2067399E-1,-3.4504932E-1,-7.054784E-2,1.0871035E-2,-2.5637203E-1,-1.7382087E-1,1.3298807E-1,-2.1353242E-1,6.374528E-2,2.1033996E-1,-4.300921E-1,2.1515726E-1,-9.190741E-2,-3.8923123E-1,7.644188E-2,-2.2928397E-1,1.8944931E-1,1.3298807E-1,-3.699912E-1,-4.240359E-1,1.1478068E-1,1.9108476E-1,-2.56963E-1,-4.5405546E-1,-2.6842347E-1,-3.1079906E-1,8.4369145E-2,1.8741216E-1,-1.0085246E-1,-3.3116585E-1,-4.5468014E-2],"categories":[],"categories_nodes":[],"categories_segments":[],"categories_sizes":[],"default_left":[0,0,0,0,0,0,0,0,0,0,0,0,0,0,0,0,0,0,0,0,0,0,0,0,0,0,0,0,0,0,0,0,0,0,0,0,0,0,0,0,0,0,0,0,0,0,0,0,0,0,0,0,0,0,0,0,0,0,0,0,0,0,0,0,0,0,0,0,0,0,0,0,0,0,0,0,0,0,0,0,0,0,0,0,0,0,0,0,0,0,0,0,0,0,0,0,0,0,0,0,0,0,0,0,0,0,0,0,0,0,0,0,0,0,0,0,0,0,0,0,0,0,0,0,0,0,0,0,0,0,0,0,0,0,0,0,0,0,0,0,0,0,0,0,0,0,0,0,0,0,0,0,0,0,0,0,0,0,0,0,0,0,0,0,0,0,0,0,0,0,0,0,0,0,0,0,0,0,0,0,0,0,0,0,0,0,0,0,0,0,0,0,0,0,0,0,0,0,0,0,0,0,0,0,0,0,0,0,0,0,0,0,0,0,0,0,0,0,0,0,0,0,0,0,0,0,0,0,0,0,0,0,0,0,0,0,0,0,0,0,0,0,0],"id":0,"left_children":[1,3,5,7,9,11,13,15,17,19,21,23,25,27,29,-1,31,33,35,37,39,41,43,-1,-1,45,47,49,51,53,55,57,59,61,63,65,67,69,-1,71,73,75,77,79,81,-1,-1,-1,83,85,87,89,91,93,95,97,99,101,103,-1,105,-1,-1,107,109,111,-1,113,115,117,119,-1,121,123,125,127,129,131,133,135,137,139,-1,141,143,145,147,149,151,-1,-1,153,155,-1,-1,-1,-1,-1,-1,-1,-1,157,159,161,163,-1,165,167,-1,-1,-1,169,171,173,175,177,179,181,183,185,187,-1,-1,-1,-1,189,191,193,195,197,199,201,203,205,207,209,211,213,215,217,219,-1,-1,-1,-1,221,223,-1,225,227,229,231,233,235,237,239,241,-1,-1,-1,-1,-1,-1,-1,-1,-1,-1,-1,-1,-1,-1,-1,-1,-1,-1,-1,-1,-1,-1,-1,-1,-1,-1,-1,-1,-1,-1,-1,-1,-1,-1,-1,-1,-1,-1,-1,-1,-1,-1,-1,-1,-1,-1,-1,-1,-1,-1,-1,-1,-1,-1,-1,-1,-1,-1,-1,-1,-1,-1,-1,-1,-1,-1,-1,-1,-1,-1,-1,-1,-1,-1,-1,-1,-1,-1,-1,-1,-1,-1,-1,-1,-1,-1],"loss_changes":[7.63283E4,1.0125998E4,9.738973E3,9.784911E3,1.8388281E3,1.3596875E2,5.5689473E3,2.8477822E3,3.3153018E3,1.7172539E3,7.052947E2,3.1088924E-1,4.8820312E1,2.341072E3,5.784043E2,0E0,1.9664009E3,3.4875293E2,2.0053718E3,4.6080835E2,1.0409766E2,7.1783646E1,1.5719751E2,0E0,0E0,7.394268E1,1.3515625E0,1.9447107E2,2.0363794E2,6.173073E0,5.7867676E1,6.0210938E1,1.175694E2,1.2437012E1,2.3228735E2,5.4248413E2,1.1094294E3,2.3498131E2,0E0,3.483789E1,9.0655396E1,2.0501328E1,2.420834E1,1.0720056E2,6.1866955E1,0E0,0E0,0E0,2.7046997E1,8.90979E1,9.1019356E1,2.4340324E0,2.077196E2,6.3494873E-1,3.7844086E0,1.4490234E1,3.7667794E0,4.1601562E1,4.8437338E2,0E0,4.2801636E1,0E0,0E0,1.3740825E2,6.9193665E1,2.7831836E2,0E0,8.0167444E2,5.4389233E2,5.63636E1,9.411539E1,0E0,7.5390625E-1,1.4940491E0,3.0274025E1,2.2109703E1,3.4639587E0,1.8491217E1,1.550449E1,1.7440945E1,1.354541E1,2.9424026E1,0E0,1.1295054E1,1.8473053E0,4.7976196E1,4.2630898E1,4.7253742E1,3.7022774E1,0E0,0E0,2.0351318E1,2.886974E1,0E0,0E0,0E0,0E0,0E0,0E0,0E0,0E0,1.8917236E2,6.473047E1,3.5878845E1,4.9108887E0,0E0,2.6695557E0,2.5646812E1,0E0,0E0,0E0,3.0568447E0,8.08252E0,5.148796E2,1.021495E3,2.166417E2,2.6014258E2,2.1269272E1,1.44486885E1,6.2417313E1,3.4075134E1,0E0,0E0,0E0,0E0,1.3794556E1,1.2698769E1,1.225708E0,9.420247E0,5.0479126E-1,2.9874725E0,1.078677E1,1.709694E1,2.960287E0,9.016476E0,3.2748203E0,2.0422173E1,2.4019775E0,6.3701835E0,8.564806E0,1.6717812E1,0E0,0E0,0E0,0E0,1.635322E2,3.284082E1,0E0,4.6381413E1,2.594756E1,1.763404E1,1.772181E1,3.688058E1,1.1536377E1,1.1171768E1,5.694233E0,2.9026766E0,0E0,0E0,0E0,0E0,0E0,0E0,0E0,0E0,0E0,0E0,0E0,0E0,0E0,0E0,0E0,0E0,0E0,0E0,0E0,0E0,0E0,0E0,0E0,0E0,0E0,0E0,0E0,0E0,0E0,0E0,0E0,0E0,0E0,0E0,0E0,0E0,0E0,0E0,0E0,0E0,0E0,0E0,0E0,0E0,0E0,0E0,0E0,0E0,0E0,0E0,0E0,0E0,0E0,0E0,0E0,0E0,0E0,0E0,0E0,0E0,0E0,0E0,0E0,0E0,0E0,0E0,0E0,0E0,0E0,0E0,0E0,0E0,0E0,0E0,0E0,0E0,0E0,0E0,0E0,0E0,0E0,0E0,0E0,0E0,0E0,0E0],"parents":[2147483647,0,0,1,1,2,2,3,3,4,4,5,5,6,6,7,7,8,8,9,9,10,10,11,11,12,12,13,13,14,14,16,16,17,17,18,18,19,19,20,20,21,21,22,22,25,25,26,26,27,27,28,28,29,29,30,30,31,31,32,32,33,33,34,34,35,35,36,36,37,37,39,39,40,40,41,41,42,42,43,43,44,44,48,48,49,49,50,50,51,51,52,52,53,53,54,54,55,55,56,56,57,57,58,58,60,60,63,63,64,64,65,65,67,67,68,68,69,69,70,70,72,72,73,73,74,74,75,75,76,76,77,77,78,78,79,79,80,80,81,81,83,83,84,84,85,85,86,86,87,87,88,88,91,91,92,92,101,101,102,102,103,103,104,104,106,106,107,107,111,111,112,112,113,113,114,114,115,115,116,116,117,117,118,118,119,119,120,120,125,125,126,126,127,127,128,128,129,129,130,130,131,131,132,132,133,133,134,134,135,135,136,136,137,137,138,138,139,139,140,140,145,145,146,146,148,148,149,149,150,150,151,151,152,152,153,153,154,154,155,155,156,156],"right_children":[2,4,6,8,10,12,14,16,18,20,22,24,26,28,30,-1,32,34,36,38,40,42,44,-1,-1,46,48,50,52,54,56,58,60,62,64,66,68,70,-1,72,74,76,78,80,82,-1,-1,-1,84,86,88,90,92,94,96,98,100,102,104,-1,106,-1,-1,108,110,112,-1,114,116,118,120,-1,122,124,126,128,130,132,134,136,138,140,-1,142,144,146,148,150,152,-1,-1,154,156,-1,-1,-1,-1,-1,-1,-1,-1,158,160,162,164,-1,166,168,-1,-1,-1,170,172,174,176,178,180,182,184,186,188,-1,-1,-1,-1,190,192,194,196,198,200,202,204,206,208,210,212,214,216,218,220,-1,-1,-1,-1,222,224,-1,226,228,230,232,234,236,238,240,242,-1,-1,-1,-1,-1,-1,-1,-1,-1,-1,-1,-1,-1,-1,-1,-1,-1,-1,-1,-1,-1,-1,-1,-1,-1,-1,-1,-1,-1,-1,-1,-1,-1,-1,-1,-1,-1,-1,-1,-1,-1,-1,-1,-1,-1,-1,-1,-1,-1,-1,-1,-1,-1,-1,-1,-1,-1,-1,-1,-1,-1,-1,-1,-1,-1,-1,-1,-1,-1,-1,-1,-1,-1,-1,-1,-1,-1,-1,-1,-1,-1,-1,-1,-1,-1,-1],"split_conditions":[4.9059176E4,4.56E7,2.0007334E1,2E0,6.46E2,1.3E2,7.138716E3,4.3E1,4.7E1,1.1E2,1.3E1,1.13570125E5,1.11113716E2,3E0,1.54E3,-4.667182E-1,1.5E1,1.141256E0,3E0,1E0,2.02E2,3E0,1.068E3,1.8830298E-1,4.290296E-2,3.15542E-1,1.789352E1,3E0,5.3E1,3E0,1.5431044E2,3.6E1,5.4E1,1.14E2,6E0,3.54E2,4E0,6E0,-4.605315E-1,4E0,3E0,5.76E2,7E0,1.056E3,4.5E1,1.9021268E-1,-4.1929874E-1,-4.6939883E-1,2E0,1.2472E4,2E0,7.57458E-1,8.1E1,3E0,1.667507E0,1.33E2,2E0,1.596E3,5.6E1,1.7252459E-1,1E0,-4.6851608E-1,-5.7110436E-2,8.033207E1,3.6952988E3,1.94E2,2.1337514E-1,1.8239438E2,3E0,1.01E2,4E0,-3.1079906E-1,5.2E1,3E0,3.4E1,1.064E3,2E0,4E0,4E0,7E0,2E0,7E0,-4.1894528E-1,2.60451E-1,2E0,4.32E2,5.2E1,3.568E3,1E0,-5.450835E-3,2.0469232E-1,1.12736336E2,2.1E1,2.1279785E-1,4.290296E-2,-1.7273018E-1,1.1478068E-1,-4.6872833E-1,4.290296E-2,1.5931237E-1,-7.913342E-2,1E1,3.24E2,3E0,1.4935417E3,1.5094623E-1,7.6748228E3,3E0,2.1211699E-1,-4.5204344E-1,1.734497E-1,4E0,2E0,1.9E1,3E0,1.0182484E2,1.644E3,4.3E1,3E0,1.1E1,1.2E1,2.1979529E-1,4.290296E-2,2.0470251E-1,4.436501E-2,8E0,9E0,2E0,5E0,3E-5,9.14E2,5E0,5E0,8.232E8,9E0,5.616E8,3.3E1,4E1,3.2E1,2.436E3,1.4E1,1.5931237E-1,-2.6583886E-1,-1.5858588E-1,-4.495835E-1,5E1,8E0,1.965874E-1,1.79E2,9.232488E1,4.6E1,7.63E2,1.244E3,5E0,9.7303E-1,6.170994E3,1.392546E0,1.9809073E-1,1.095353E-1,-3.6478123E-1,2.1525869E-1,1.4584047E-1,-4.5472148E-1,-2.4369003E-2,2.1614212E-1,-4.6554485E-1,-1.0085246E-1,8.330926E-2,-2.0342018E-1,2.0469232E-1,9.15839E-3,-2.8974745E-2,-4.67108E-1,1.6980283E-1,-3.7042093E-1,5.2277964E-2,-9.8363034E-2,-1.8564436E-1,3.6936816E-2,1.351423E-3,-4.2734906E-1,-2.6583886E-1,2.1710123E-1,3.6387976E-2,1.17165916E-1,-1.05863504E-1,-3.0314064E-1,1.0072174E-1,-3.5350376E-1,2.8376348E-2,1.6229329E-1,-3.4137845E-1,-5.3102937E-2,1.8646006E-1,6.304221E-2,5.785892E-2,-1.9846678E-1,2.0017627E-1,4.290296E-2,9.07079E-2,1.7580059E-1,3.9310023E-2,1.1458514E-1,6.2285356E-2,-2.6761454E-1,-3.1963554E-1,-4.5468014E-2,-7.179231E-2,3.495667E-2,-2.702697E-1,-2.4369003E-2,1.3760787E-1,-1.2067399E-1,-3.4504932E-1,-7.054784E-2,1.0871035E-2,-2.5637203E-1,-1.7382087E-1,1.3298807E-1,-2.1353242E-1,6.374528E-2,2.1033996E-1,-4.300921E-1,2.1515726E-1,-9.190741E-2,-3.8923123E-1,7.644188E-2,-2.2928397E-1,1.8944931E-1,1.3298807E-1,-3.699912E-1,-4.240359E-1,1.1478068E-1,1.9108476E-1,-2.56963E-1,-4.5405546E-1,-2.6842347E-1,-3.1079906E-1,8.4369145E-2,1.8741216E-1,-1.0085246E-1,-3.3116585E-1,-4.5468014E-2],"split_indices":[10,9,13,30,6,6,16,1,17,6,21,10,8,30,6,0,12,8,3,11,6,25,6,0,0,0,13,22,17,30,13,5,5,1,3,7,12,30,0,3,25,17,21,6,21,0,0,0,30,6,30,0,17,22,0,17,22,7,4,0,2,0,0,15,15,6,0,10,22,1,23,0,21,2,21,6,25,23,30,29,24,22,0,0,21,6,17,6,19,0,0,13,4,0,0,0,0,0,0,0,0,5,6,2,10,0,16,25,0,0,0,22,21,24,25,14,7,1,29,30,23,0,0,0,0,22,22,23,22,0,17,30,25,9,21,9,21,25,21,6,21,0,0,0,0,17,2,0,17,16,17,18,6,2,0,15,0,0,0,0,0,0,0,0,0,0,0,0,0,0,0,0,0,0,0,0,0,0,0,0,0,0,0,0,0,0,0,0,0,0,0,0,0,0,0,0,0,0,0,0,0,0,0,0,0,0,0,0,0,0,0,0,0,0,0,0,0,0,0,0,0,0,0,0,0,0,0,0,0,0,0,0,0,0,0,0,0,0,0,0,0,0,0],"split_type":[0,0,0,0,0,0,0,0,0,0,0,0,0,0,0,0,0,0,0,0,0,0,0,0,0,0,0,0,0,0,0,0,0,0,0,0,0,0,0,0,0,0,0,0,0,0,0,0,0,0,0,0,0,0,0,0,0,0,0,0,0,0,0,0,0,0,0,0,0,0,0,0,0,0,0,0,0,0,0,0,0,0,0,0,0,0,0,0,0,0,0,0,0,0,0,0,0,0,0,0,0,0,0,0,0,0,0,0,0,0,0,0,0,0,0,0,0,0,0,0,0,0,0,0,0,0,0,0,0,0,0,0,0,0,0,0,0,0,0,0,0,0,0,0,0,0,0,0,0,0,0,0,0,0,0,0,0,0,0,0,0,0,0,0,0,0,0,0,0,0,0,0,0,0,0,0,0,0,0,0,0,0,0,0,0,0,0,0,0,0,0,0,0,0,0,0,0,0,0,0,0,0,0,0,0,0,0,0,0,0,0,0,0,0,0,0,0,0,0,0,0,0,0,0,0,0,0,0,0,0,0,0,0,0,0,0,0,0,0,0,0,0,0],"sum_hessian":[3.811485E4,2.9174193E4,8.940657E3,1.2830376E4,1.6343817E4,6.9292812E3,2.0113762E3,5.9437E3,6.886676E3,1.5511052E4,8.327658E2,6.9560184E0,6.922325E3,1.3129485E3,6.9842773E2,1.584668E2,5.7852334E3,7.316862E2,6.1549893E3,6.593001E2,1.4851752E4,5.3909143E2,2.936744E2,5.8691406E0,1.0868778E0,1.7607422E1,6.904718E3,1.08753E3,2.2541847E2,3.1302082E1,6.671257E2,5.662199E3,1.2303458E2,5.410478E2,1.9063838E2,4.0562283E2,5.7493667E3,6.08869E2,5.0431133E1,1.4581771E4,2.6998047E2,2.6172018E2,2.7737125E2,1.9737703E2,9.629738E1,6.3038917E0,1.130353E1,6.876459E3,2.8258825E1,1.0110138E3,7.6516205E1,1.4346788E1,2.1107169E2,2.9128326E1,2.1737556E0,6.6277814E2,4.3475113E0,5.471126E3,1.9107314E2,6.7386427E0,1.1629594E2,5.3909143E2,1.9563801E0,1.1020942E2,8.042896E1,3.7519025E2,3.043258E1,5.0142026E3,7.351642E2,3.7432074E2,2.3454825E2,1.9563801E0,1.4579814E4,1.4890227E2,1.2107819E2,1.3086009E2,1.3086009E2,2.0172453E2,7.56467E1,3.3475838E1,1.6390118E2,8.803711E1,8.260272E0,3.9127603E0,2.4346066E1,9.8449396E2,2.6519821E1,4.477937E1,3.1736834E1,1.3042535E0,1.3042535E1,1.9129051E2,1.9781178E1,2.8041449E1,1.0868778E0,1.0868778E0,1.0868778E0,6.616913E2,1.0868778E0,2.608507E0,1.7390046E0,3.9923198E3,1.478806E3,3.238896E1,1.5868417E2,2.1737556E0,1.1412218E2,8.45591E1,2.5650318E1,7.673358E1,3.6953847E0,1.521629E1,3.5997397E2,6.527789E2,4.3614233E3,4.406203E2,2.945439E2,6.738643E1,3.0693433E2,1.8303024E2,5.1518013E1,1.4578728E4,1.0868778E0,1.4694589E2,1.9563801E0,1.06948784E2,1.4129413E1,4.4127243E1,8.673286E1,8.521123E1,4.5648872E1,1.8911674E2,1.2607783E1,5.651765E0,6.9994934E1,7.608145E0,2.5867693E1,1.5694516E2,6.9560184E0,2.3911314E1,6.412579E1,2.608507E0,1.3042535E0,1.9563801E0,2.2389685E1,4.673575E1,9.3775824E2,8.260272E0,1.8259548E1,3.8040726E1,6.7386427E0,1.6955296E1,1.4781539E1,1.8650824E2,4.782263E0,1.5868417E1,3.9127603E0,3.3391062E3,6.532136E2,3.4780092E0,1.475328E3,1.9563801E0,3.043258E1,1.7390046E0,1.5694516E2,1.130353E2,1.0868778E0,7.173394E0,7.7385704E1,1.3042535E1,2.1737556E0,1.0868778E0,3.588871E2,6.1126013E2,4.1518734E1,1.5974932E3,2.7639304E3,2.9323965E2,1.4738065E2,3.630172E1,2.582422E2,1.3042535E0,6.608218E1,2.447649E2,6.2169415E1,1.334686E2,4.956163E1,4.8474754E1,3.0432582E0,8.608073E1,2.0868055E1,4.999638E0,9.129774E0,4.0866608E1,3.2606337E0,8.434172E1,2.3911314E0,8.412435E1,1.0868778E0,2.1520182E1,2.4128689E1,1.228172E2,6.629955E1,6.0865164E0,6.5212674E0,4.130136E0,1.5216291E0,3.8258102E1,3.1736834E1,5.8691406E0,1.7390046E0,1.4346788E1,1.15209055E1,1.5564091E2,1.3042535E0,4.3475113E0,2.608507E0,2.2389685E1,1.5216291E0,4.3475113E0,5.9778282E1,3.586697E1,1.0868779E1,9.303675E2,7.3907695E0,1.0434028E1,7.8255205E0,2.8258824E0,3.5214844E1,1.5216291E0,5.217014E0,1.5868417E1,1.0868778E0,6.5212674E0,8.260272E0,1.7324834E2,1.3259911E1,1.9563801E0,2.8258824E0,1.4781539E1,1.0868778E0,2.3911314E0,1.5216291E0],"tree_param":{"num_deleted":"0","num_feature":"32","num_nodes":"243","size_leaf_vector":"1"}},{"base_weights":[1.35432165E-2,7.093465E-1,-1.9474303E0,1.1013077E-1,1.2115911E0,-2.324211E0,-5.019382E-1,9.704838E-1,-5.6540227E-1,1.2892478E0,-1.1619509E-1,1.0793737E0,-2.3271914E0,5.4048353E-1,-2.1782584E0,-3.4849447E-1,1.0801044E0,-2.0459979E0,-3.7340024E-1,-1.6187343E-1,1.3599539E0,4.744397E-1,-1.1057427E0,1.759704E-1,3.9905325E-2,5.1539254E-1,-2.3282425E0,1.1118944E0,-1.7942163E0,1.177199E0,-2.3091671E0,1.1631835E0,-2.0923321E0,-2.3224785E0,-1.2075502E0,-1.9765859E0,-2.4992321E-1,4.241363E-2,-3.4560084E-1,1.3716488E0,7.497229E-1,8.243208E-1,1.5587023E-1,-1.4774295E0,-2.828339E-1,1.2846026E-1,-2.3576183E-2,-2.3292027E0,2.8843608E-1,1.2262269E0,-2.7596003E-1,1.1542298E0,-1.9668735E0,-2.0939495E-1,1.2999396E0,-2.325095E0,4.0562323E-1,1.1818193E0,6.3968307E-1,1.5996574E-1,-2.2516224E0,-3.49265E-1,-5.070898E-2,1.1693554E0,-1.5169684E0,-2.199277E0,1.9970533E-1,8.036778E-1,-3.7606242E-1,4.7441986E-1,-6.032377E-1,-2.619602E-1,1.3722807E0,1.2575219E0,1.6148396E-1,5.532849E-1,1.0980054E0,3.1538668E-1,-2.54029E-1,-2.1952522E-1,-1.7103572E0,1.553477E-1,-1.3747065E0,-9.713817E-1,-2.3297546E0,1.1391757E-1,-3.5185613E-2,1.2745513E0,-3.9079797E-1,-1.6448058E0,3.4353906E-1,-4.98206E-3,1.9141446E-1,-2.1798825E0,4.201037E-1,1.1269044E-1,-1.6697112E-1,1.9977498E-1,6.3333005E-2,-3.493747E-1,3.9905325E-2,1.4913353E-1,-7.026131E-2,1.1272203E0,1.3302768E0,-2.1016288E0,1.3288958E0,1.4146456E-1,-2.3094792E0,5.203377E-1,1.9612674E-1,-9.018599E-1,-2.1206489E0,1.1053387E0,-2.3172626E0,1.0214809E0,-1.8870579E0,1.2580691E-1,-6.647244E-1,1.2656543E0,3.079938E-1,-1.0066252E0,8.898162E-2,1.3723496E0,3.9905325E-2,1.281355E0,6.0120875E-1,3.2546544E-1,-9.45654E-1,1.0990609E0,2.7989048E-1,1.2295402E0,8.365967E-1,3.8619426E-1,-6.4419806E-1,-5.7917833E-1,1.8100697E-1,-1.2195071E0,1.3169718E-1,-1.7511675E0,-6.29414E-1,-5.6392413E-1,7.8790146E-1,-2.0011067E0,-3.917767E-1,1.1391757E-1,-2.621254E-1,-3.4960097E-1,-1.7551047E0,3.3421254E-1,1.323423E0,1.8374637E-1,-1.0616264E0,-1.9787732E0,1.4728889E-1,1.0646553E0,-7.3128337E-1,-1.245501E0,-2.245613E0,9.9483126E-1,-1.4196775E0,1.8359263E-1,9.748067E-2,-2.9527023E-1,2.0116831E-1,1.3679457E-1,-3.428458E-1,2.0223935E-1,-3.0824998E-2,-3.4841233E-1,-7.09693E-2,1.5387678E-1,-2.5075508E-2,-1.5674578E-1,1.745227E-1,-3.390017E-1,1.6215923E-1,1.9141446E-1,8.237748E-3,-3.4868982E-1,-5.5447012E-2,-3.1682888E-1,1.6688502E-1,2.1606782E-1,-3.6166573E-1,2.8862959E-2,-3.4291238E-1,-8.291963E-2,-3.0289194E-1,-2.3133998E-1,2.0328987E-1,3.140535E-2,1.048119E-1,1.4425247E-2,-1.7905574E-1,2.8296027E-2,-2.8861713E-1,2.0591892E-1,1.6232291E-1,2.0189267E-1,1.6532406E-1,-4.1132722E-2,1.4018923E-1,2.4441069E-2,1.4859454E-1,-2.7317214E-1,-4.509445E-2,1.7222917E-1,5.6906205E-2,1.5607309E-2,1.2596577E-1,1.858904E-1,3.9905325E-2,9.4187036E-2,1.8406396E-1,3.3989623E-2,1.0237519E-1,1.5522425E-1,-1.6613832E-1,-1.0852658E-1,1.3912621E-1,8.335014E-2,-3.56317E-2,1.0857875E-2,-2.1892777E-1,1.2492052E-1,-9.988129E-2,-2.9090458E-1,-2.362072E-1,9.57862E-3,-2.14808E-1,-1.2768902E-1,1.7484869E-1,1.3782527E-1,-4.6605658E-2,-2.1920256E-2,-3.1818756E-1,-1.7351767E-1,1.6915712E-1,4.9301025E-2,-3.313563E-1,1.9651298E-1,-3.3075297E-1,2.010697E-1,-7.739746E-2,-3.0180803E-1,6.8137534E-2,-3.7564315E-2,-3.2151198E-1,-2.1643065E-1,1.8039192E-1,-2.737338E-1,1.4235185E-2,-3.26907E-1,8.1647985E-2,-1.5319817E-1,-3.4128803E-1,1.7380205E-1,-9.11824E-2,-2.7496496E-1,-4.092153E-2],"categories":[],"categories_nodes":[],"categories_segments":[],"categories_sizes":[],"default_left":[0,0,0,0,0,0,0,0,0,0,0,0,0,0,0,0,0,0,0,0,0,0,0,0,0,0,0,0,0,0,0,0,0,0,0,0,0,0,0,0,0,0,0,0,0,0,0,0,0,0,0,0,0,0,0,0,0,0,0,0,0,0,0,0,0,0,0,0,0,0,0,0,0,0,0,0,0,0,0,0,0,0,0,0,0,0,0,0,0,0,0,0,0,0,0,0,0,0,0,0,0,0,0,0,0,0,0,0,0,0,0,0,0,0,0,0,0,0,0,0,0,0,0,0,0,0,0,0,0,0,0,0,0,0,0,0,0,0,0,0,0,0,0,0,0,0,0,0,0,0,0,0,0,0,0,0,0,0,0,0,0,0,0,0,0,0,0,0,0,0,0,0,0,0,0,0,0,0,0,0,0,0,0,0,0,0,0,0,0,0,0,0,0,0,0,0,0,0,0,0,0,0,0,0,0,0,0,0,0,0,0,0,0,0,0,0,0,0,0,0,0,0,0,0,0,0,0,0,0,0,0,0,0,0,0,0,0,0,0,0,0,0,0,0,0,0,0,0,0,0,0,0,0,0,0,0,0,0,0,0,0],"id":1,"left_children":[1,3,5,7,9,11,13,15,17,19,21,23,25,27,29,-1,31,33,35,37,39,41,43,-1,-1,45,47,49,51,53,55,57,59,61,63,65,67,69,-1,71,73,75,77,79,81,-1,-1,83,85,87,89,91,93,95,97,99,101,103,105,-1,107,-1,-1,109,111,113,-1,115,117,119,121,-1,123,125,127,129,131,133,135,137,139,141,143,145,147,-1,-1,149,151,153,155,-1,-1,157,159,-1,-1,-1,-1,-1,-1,-1,-1,161,163,165,167,-1,169,171,-1,173,175,177,179,181,183,185,187,189,191,193,195,197,-1,199,201,203,205,207,209,211,213,215,217,219,221,223,225,227,229,231,233,235,237,-1,-1,-1,239,241,243,-1,245,247,-1,249,251,253,255,257,259,-1,-1,-1,-1,-1,-1,-1,-1,-1,-1,-1,-1,-1,-1,-1,-1,-1,-1,-1,-1,-1,-1,-1,-1,-1,-1,-1,-1,-1,-1,-1,-1,-1,-1,-1,-1,-1,-1,-1,-1,-1,-1,-1,-1,-1,-1,-1,-1,-1,-1,-1,-1,-1,-1,-1,-1,-1,-1,-1,-1,-1,-1,-1,-1,-1,-1,-1,-1,-1,-1,-1,-1,-1,-1,-1,-1,-1,-1,-1,-1,-1,-1,-1,-1,-1,-1,-1,-1,-1,-1,-1,-1,-1,-1,-1,-1,-1,-1,-1,-1],"loss_changes":[5.126179E4,8.345329E3,5.3576797E3,7.3500786E3,1.5556523E3,8.168359E1,3.5584314E3,2.0108599E3,2.013123E3,1.4625391E3,4.8823502E2,2.607565E-1,2.4503906E1,1.6775557E3,3.456604E2,0E0,1.4214053E3,1.8565942E2,1.2411365E3,2.9026318E2,9.595508E1,5.8194748E1,9.507364E1,0E0,0E0,9.8350644E-1,2.025E1,1.6054443E2,1.2818231E2,5.374161E0,3.344995E1,5.0434082E1,7.1711365E1,6.4243164E0,1.5157932E2,3.33239E2,7.744259E2,1.6940472E2,0E0,2.8671875E1,7.6791016E1,1.7873383E1,1.8068897E1,6.256888E1,4.728016E1,0E0,0E0,3.578125E0,1.1015952E0,7.340234E1,6.642103E1,2.113573E0,1.1990503E2,3.7005281E0,2.1250153E-1,8.502441E0,3.1595557E0,3.955957E1,3.4768576E2,0E0,2.6476196E1,0E0,0E0,1.4739838E0,6.517319E1,1.6650964E2,0E0,3.67106E2,7.5380524E2,4.7519028E1,6.808259E1,0E0,6.484375E-1,1.3912201E0,2.219684E1,1.8670979E1,3.1988983E0,1.3735531E1,1.1085109E1,1.2351944E1,6.887451E0,3.279365E1,1.6624897E1,7.8847055E0,2.34375E-2,0E0,0E0,4.1200073E1,3.1474274E1,2.332061E1,4.285829E1,0E0,0E0,1.040863E1,2.2571783E1,0E0,0E0,0E0,0E0,0E0,0E0,0E0,0E0,1.7051172E2,5.1168945E1,2.2636398E1,4.629944E0,0E0,2.0545044E0,2.2142801E0,0E0,2.8179619E1,4.2796814E1,2.6513577E0,4.946289E0,1.6707477E2,8.545253E1,3.0579742E2,4.9967212E2,1.7918411E1,1.1488947E1,3.1871643E1,1.8533726E1,2.2851562E-1,0E0,4.9850464E-2,2.21939E0,1.1271615E1,8.380612E0,1.053379E0,8.387632E0,4.1709137E-1,2.8383026E0,8.6165085E0,1.2050482E1,1.0383278E1,5.458088E0,2.9335413E0,1.54241085E1,2.7230835E0,4.626615E0,1.7816114E1,5.787262E0,3.484436E0,1.5542769E1,0E0,0E0,0E0,1.6311947E1,1.17136604E2,2.7682129E1,0E0,3.0026512E1,5.709732E0,0E0,1.31160965E1,2.0405064E1,2.8559557E1,4.9207153E0,4.8629236E0,1.9537487E0,0E0,0E0,0E0,0E0,0E0,0E0,0E0,0E0,0E0,0E0,0E0,0E0,0E0,0E0,0E0,0E0,0E0,0E0,0E0,0E0,0E0,0E0,0E0,0E0,0E0,0E0,0E0,0E0,0E0,0E0,0E0,0E0,0E0,0E0,0E0,0E0,0E0,0E0,0E0,0E0,0E0,0E0,0E0,0E0,0E0,0E0,0E0,0E0,0E0,0E0,0E0,0E0,0E0,0E0,0E0,0E0,0E0,0E0,0E0,0E0,0E0,0E0,0E0,0E0,0E0,0E0,0E0,0E0,0E0,0E0,0E0,0E0,0E0,0E0,0E0,0E0,0E0,0E0,0E0,0E0,0E0,0E0,0E0,0E0,0E0,0E0,0E0,0E0,0E0,0E0,0E0,0E0,0E0,0E0,0E0,0E0,0E0,0E0,0E0,0E0],"parents":[2147483647,0,0,1,1,2,2,3,3,4,4,5,5,6,6,7,7,8,8,9,9,10,10,11,11,12,12,13,13,14,14,16,16,17,17,18,18,19,19,20,20,21,21,22,22,25,25,26,26,27,27,28,28,29,29,30,30,31,31,32,32,33,33,34,34,35,35,36,36,37,37,39,39,40,40,41,41,42,42,43,43,44,44,47,47,48,48,49,49,50,50,51,51,52,52,53,53,54,54,55,55,56,56,57,57,58,58,60,60,63,63,64,64,65,65,67,67,68,68,69,69,70,70,72,72,73,73,74,74,75,75,76,76,77,77,78,78,79,79,80,80,81,81,82,82,83,83,84,84,87,87,88,88,89,89,90,90,93,93,94,94,103,103,104,104,105,105,106,106,108,108,109,109,111,111,112,112,113,113,114,114,115,115,116,116,117,117,118,118,119,119,120,120,121,121,122,122,123,123,125,125,126,126,127,127,128,128,129,129,130,130,131,131,132,132,133,133,134,134,135,135,136,136,137,137,138,138,139,139,140,140,141,141,142,142,143,143,144,144,148,148,149,149,150,150,152,152,153,153,155,155,156,156,157,157,158,158,159,159,160,160],"right_children":[2,4,6,8,10,12,14,16,18,20,22,24,26,28,30,-1,32,34,36,38,40,42,44,-1,-1,46,48,50,52,54,56,58,60,62,64,66,68,70,-1,72,74,76,78,80,82,-1,-1,84,86,88,90,92,94,96,98,100,102,104,106,-1,108,-1,-1,110,112,114,-1,116,118,120,122,-1,124,126,128,130,132,134,136,138,140,142,144,146,148,-1,-1,150,152,154,156,-1,-1,158,160,-1,-1,-1,-1,-1,-1,-1,-1,162,164,166,168,-1,170,172,-1,174,176,178,180,182,184,186,188,190,192,194,196,198,-1,200,202,204,206,208,210,212,214,216,218,220,222,224,226,228,230,232,234,236,238,-1,-1,-1,240,242,244,-1,246,248,-1,250,252,254,256,258,260,-1,-1,-1,-1,-1,-1,-1,-1,-1,-1,-1,-1,-1,-1,-1,-1,-1,-1,-1,-1,-1,-1,-1,-1,-1,-1,-1,-1,-1,-1,-1,-1,-1,-1,-1,-1,-1,-1,-1,-1,-1,-1,-1,-1,-1,-1,-1,-1,-1,-1,-1,-1,-1,-1,-1,-1,-1,-1,-1,-1,-1,-1,-1,-1,-1,-1,-1,-1,-1,-1,-1,-1,-1,-1,-1,-1,-1,-1,-1,-1,-1,-1,-1,-1,-1,-1,-1,-1,-1,-1,-1,-1,-1,-1,-1,-1,-1,-1,-1,-1],"split_conditions":[4.9059176E4,4.56E7,2.0007334E1,2E0,6.46E2,1.3E2,7.138716E3,4.3E1,4.7E1,1.1E2,1.3E1,1.13570125E5,9.148734E1,3E0,1.54E3,-3.4849447E-1,1.5E1,1.141256E0,3E0,1E0,2.02E2,3E0,1.068E3,1.759704E-1,3.9905325E-2,7.5263E-2,3E0,3E0,5.3E1,1.059015E0,1.5431044E2,3.6E1,5.4E1,1.14E2,3E0,3.54E2,2.0600969E2,6E0,-3.4560084E-1,4E0,3E0,5.76E2,7E0,1.056E3,3.7E1,1.2846026E-1,-2.3576183E-2,1.0084876E2,4E0,1.2472E4,3.4916367E1,7.57458E-1,8.1E1,2E0,4E0,1.33E2,2E0,1.596E3,5.6E1,1.5996574E-1,1E0,-3.49265E-1,-5.070898E-2,6E0,6E0,1.94E2,1.9970533E-1,1.9E1,3E0,1.01E2,3E0,-2.619602E-1,5.2E1,1E0,3.4E1,1.064E3,2E0,4E0,9E0,7E0,2E0,2.3E1,1.1E1,2.96029E-1,1.9035667E1,1.1391757E-1,-3.5185613E-2,4.32E2,5.2E1,1.5E1,2E0,-4.98206E-3,1.9141446E-1,5.2981973E3,2.1E1,1.1269044E-1,-1.6697112E-1,1.9977498E-1,6.3333005E-2,-3.493747E-1,3.9905325E-2,1.4913353E-1,-7.026131E-2,1E1,3.24E2,3E0,1.5065537E4,1.4146456E-1,2.08E2,1E-5,1.9612674E-1,6E0,3.6952988E3,4E0,9.94E2,2E0,1.8E-5,9.67E3,1.644E3,4.3E1,3E0,5E0,1.2E1,1.1E-5,3.9905325E-2,2E0,1.6E8,8E0,9E0,2E0,3E0,3E-5,2.268E3,5E0,4E0,6E0,1.172E3,6.98E2,3.3E1,3E1,3.2E1,1.2E1,1.6E1,9E-6,4E1,1.1391757E-1,-2.621254E-1,-3.4960097E-1,2.60451E-1,5E1,8E0,1.8374637E-1,1.79E2,6.794863E1,1.4728889E-1,2.52674E-1,1.0276E4,9.7303E-1,2E0,6.170994E3,1.392546E0,1.8359263E-1,9.748067E-2,-2.9527023E-1,2.0116831E-1,1.3679457E-1,-3.428458E-1,2.0223935E-1,-3.0824998E-2,-3.4841233E-1,-7.09693E-2,1.5387678E-1,-2.5075508E-2,-1.5674578E-1,1.745227E-1,-3.390017E-1,1.6215923E-1,1.9141446E-1,8.237748E-3,-3.4868982E-1,-5.5447012E-2,-3.1682888E-1,1.6688502E-1,2.1606782E-1,-3.6166573E-1,2.8862959E-2,-3.4291238E-1,-8.291963E-2,-3.0289194E-1,-2.3133998E-1,2.0328987E-1,3.140535E-2,1.048119E-1,1.4425247E-2,-1.7905574E-1,2.8296027E-2,-2.8861713E-1,2.0591892E-1,1.6232291E-1,2.0189267E-1,1.6532406E-1,-4.1132722E-2,1.4018923E-1,2.4441069E-2,1.4859454E-1,-2.7317214E-1,-4.509445E-2,1.7222917E-1,5.6906205E-2,1.5607309E-2,1.2596577E-1,1.858904E-1,3.9905325E-2,9.4187036E-2,1.8406396E-1,3.3989623E-2,1.0237519E-1,1.5522425E-1,-1.6613832E-1,-1.0852658E-1,1.3912621E-1,8.335014E-2,-3.56317E-2,1.0857875E-2,-2.1892777E-1,1.2492052E-1,-9.988129E-2,-2.9090458E-1,-2.362072E-1,9.57862E-3,-2.14808E-1,-1.2768902E-1,1.7484869E-1,1.3782527E-1,-4.6605658E-2,-2.1920256E-2,-3.1818756E-1,-1.7351767E-1,1.6915712E-1,4.9301025E-2,-3.313563E-1,1.9651298E-1,-3.3075297E-1,2.010697E-1,-7.739746E-2,-3.0180803E-1,6.8137534E-2,-3.7564315E-2,-3.2151198E-1,-2.1643065E-1,1.8039192E-1,-2.737338E-1,1.4235185E-2,-3.26907E-1,8.1647985E-2,-1.5319817E-1,-3.4128803E-1,1.7380205E-1,-9.11824E-2,-2.7496496E-1,-4.092153E-2],"split_indices":[10,9,13,30,6,6,16,1,17,6,21,10,8,30,6,0,12,8,3,11,6,25,6,0,0,0,24,22,17,0,13,5,5,1,21,7,10,30,0,3,25,17,21,6,21,0,0,8,25,6,13,0,17,21,21,17,22,7,4,0,2,0,0,4,3,6,0,24,25,1,23,0,21,2,21,6,25,23,21,29,24,30,29,0,13,0,0,6,17,22,21,0,0,9,4,0,0,0,0,0,0,0,0,5,6,2,15,0,18,0,0,5,15,22,6,21,0,7,7,1,29,21,23,0,0,30,9,22,22,23,30,0,6,30,21,29,6,6,21,21,21,22,22,0,21,0,0,0,0,17,2,0,17,8,0,16,7,0,21,15,0,0,0,0,0,0,0,0,0,0,0,0,0,0,0,0,0,0,0,0,0,0,0,0,0,0,0,0,0,0,0,0,0,0,0,0,0,0,0,0,0,0,0,0,0,0,0,0,0,0,0,0,0,0,0,0,0,0,0,0,0,0,0,0,0,0,0,0,0,0,0,0,0,0,0,0,0,0,0,0,0,0,0,0,0,0,0,0,0,0,0,0,0,0,0,0,0,0,0,0,0],"split_type":[0,0,0,0,0,0,0,0,0,0,0,0,0,0,0,0,0,0,0,0,0,0,0,0,0,0,0,0,0,0,0,0,0,0,0,0,0,0,0,0,0,0,0,0,0,0,0,0,0,0,0,0,0,0,0,0,0,0,0,0,0,0,0,0,0,0,0,0,0,0,0,0,0,0,0,0,0,0,0,0,0,0,0,0,0,0,0,0,0,0,0,0,0,0,0,0,0,0,0,0,0,0,0,0,0,0,0,0,0,0,0,0,0,0,0,0,0,0,0,0,0,0,0,0,0,0,0,0,0,0,0,0,0,0,0,0,0,0,0,0,0,0,0,0,0,0,0,0,0,0,0,0,0,0,0,0,0,0,0,0,0,0,0,0,0,0,0,0,0,0,0,0,0,0,0,0,0,0,0,0,0,0,0,0,0,0,0,0,0,0,0,0,0,0,0,0,0,0,0,0,0,0,0,0,0,0,0,0,0,0,0,0,0,0,0,0,0,0,0,0,0,0,0,0,0,0,0,0,0,0,0,0,0,0,0,0,0,0,0,0,0,0,0,0,0,0,0,0,0,0,0,0,0,0,0,0,0,0,0,0,0],"sum_hessian":[3.7567504E4,2.7729137E4,9.838364E3,1.2644508E4,1.508463E4,7.8036616E3,2.0347032E3,5.5612773E3,7.083231E3,1.4251168E4,8.334615E2,6.5118E0,7.7971494E3,1.2549739E3,7.797295E2,1.7847345E2,5.3828037E3,8.119949E2,6.271236E3,6.620687E2,1.35891E4,5.222593E2,3.112022E2,5.442063E0,1.0697368E0,2.7013133E0,7.794448E3,1.0086367E3,2.463371E2,2.897778E1,7.507517E2,5.2460547E3,1.3674925E2,6.093049E2,2.0269003E2,4.4739514E2,5.823841E3,6.053217E2,5.6747044E1,1.3332342E4,2.567578E2,2.481412E2,2.741181E2,2.1382677E2,9.737546E1,1.611107E0,1.0902063E0,7.7916997E3,2.7486246E0,9.3197626E2,7.666046E1,1.3312706E1,2.330244E2,2.2990909E0,2.6678688E1,7.465154E2,4.2363186E0,5.0645083E3,1.815461E2,6.2915263E0,1.3045772E2,6.0730914E2,1.995736E0,2.3026281E1,1.7966374E2,4.1949026E2,2.7904863E1,6.221176E2,5.201723E3,3.628221E2,2.4249959E2,2.1417952E0,1.3330199E4,1.371902E2,1.19567604E2,1.26192055E2,1.2194914E2,1.9749246E2,7.6625626E1,3.3711792E1,1.8011497E2,7.010086E1,2.7274595E1,3.8815565E0,7.7878184E3,1.2083303E0,1.5402943E0,9.0513824E2,2.6838009E1,2.3369076E1,5.329139E1,1.3068156E0,1.200589E1,2.1401306E2,1.9011333E1,1.1962335E0,1.1028575E0,2.5244022E1,1.4346658E0,7.454456E2,1.0697368E0,2.4493418E0,1.7869769E0,3.709018E3,1.3554905E3,3.6061966E1,1.4548413E2,2.0484178E0,1.284093E2,4.8778496E0,1.8148432E1,9.022484E1,8.94389E1,1.4172426E1,4.0531784E2,5.7610486E2,4.601275E1,1.8996118E3,3.3021116E3,6.1904854E1,3.0091727E2,1.5292758E2,8.957202E1,1.332913E4,1.0697368E0,1.314639E2,5.726305E0,1.0475767E2,1.4809938E1,4.1108097E1,8.508396E1,7.8663826E1,4.328532E1,1.8447745E2,1.3015017E1,4.3661407E1,3.296422E1,8.120202E0,2.559159E1,1.7296475E2,7.150224E0,3.2852753E1,3.7248108E1,1.602582E1,1.1248775E1,1.2083303E0,2.6732264E0,7.772341E3,1.5477245E1,4.51054E1,8.6003284E2,7.631214E0,1.9206793E1,2.0951893E1,2.4171832E0,3.1899168E1,2.139222E1,1.5376706E1,1.9863635E2,1.4835997E1,4.1753373E0,3.0827603E3,6.262578E2,3.8502975E0,1.3516401E3,1.8475711E0,3.4214394E1,1.4379057E2,1.693562E0,1.272251E2,1.184209E0,2.5273962E0,2.3504536E0,8.484014E1,5.3846993E0,8.59901E1,3.4488075E0,1.200589E1,2.166536E0,4.03604E2,1.713833E0,1.5645778E1,5.604591E2,6.022611E0,3.999014E1,1.8494529E3,5.0158928E1,3.0513838E3,2.5072777E2,1.4131768E0,6.049168E1,2.414993E2,5.941796E1,2.2250673E1,1.306769E2,8.621046E1,3.3615656E0,1.3305082E4,2.4047962E1,9.184464E1,3.961926E1,1.6282406E0,4.098064E0,8.518797E1,1.9569689E1,5.5090756E0,9.300862E0,3.792361E1,3.184485E0,6.5650856E1,1.9433105E1,7.7594086E1,1.0697368E0,2.990951E1,1.337581E1,1.21044975E2,6.3432476E1,2.5483365E0,1.046668E1,4.0318882E1,3.342524E0,1.7221256E1,1.5742962E1,1.3816566E0,6.7385454E0,1.3595921E1,1.199567E1,7.886272E1,9.410203E1,4.3303604E0,2.819864E0,2.8607933E1,4.2448206E0,3.342777E1,3.8203385E0,1.1096463E0,1.4916174E1,7.640677E0,3.6080973E0,2.8178728E0,1.2659372E1,3.2932785E1,1.2172617E1,8.5240674E2,7.6261015E0,1.1603986E1,7.602808E0,2.0415306E0,1.8910362E1,1.170227E0,3.0728941E1,8.685945E0,1.2706276E1,9.961447E0,5.4152594E0,5.533489E0,1.9310287E2,1.3711309E1,1.1246865E0,2.6292076E0,1.5461296E0],"tree_param":{"num_deleted":"0","num_feature":"32","num_nodes":"261","size_leaf_vector":"1"}},{"base_weights":[1.8864362E-2,6.493101E-1,-1.6357511E0,1.00979365E-1,1.1379876E0,-1.9323082E0,-4.349192E-1,9.0006E-1,-4.7513977E-1,1.2164884E0,-9.648096E-2,1.0122987E0,-1.9346792E0,4.9883884E-1,-1.8175057E0,-2.898737E-1,1.0044245E0,-1.3044192E0,-2.2642384E-1,-1.3713813E-1,1.2888534E0,4.2139313E-1,-9.1957E-1,1.6578066E-1,3.7130285E-2,-8.989119E-1,-1.9369961E0,1.0402354E0,-1.5040423E0,1.1027315E0,-1.9203243E0,1.084025E0,-1.7475271E0,-1.8848478E0,-9.463188E-1,-1.6772805E0,-9.682499E-2,3.814607E-2,-2.8779098E-1,1.3011053E0,6.791059E-1,8.367939E-1,1.919898E-1,-1.2169688E0,-2.3282114E-1,1.7325E-1,-2.7131096E-1,-2.90728E-1,-1.5929482E0,1.1538395E0,-2.394926E-1,1.0812231E0,-1.6416087E0,1.2278261E0,-2.7177718E-1,7.164442E-1,-1.9322829E0,1.1218704E0,8.320543E-1,9.949181E-1,-1.874476E0,-1.9309369E0,3.6867388E-2,-1.0098163E0,1.0175266E0,-1.8419094E0,1.8854572E-1,1.8004286E-1,-7.6571506E-1,4.1856214E-1,-5.0192493E-1,-2.2806035E-1,1.3017541E0,1.1814636E0,1.3921978E-1,5.3354555E-1,1.0702747E0,-4.0832434E-2,5.373454E-1,-1.8940406E-1,-1.3993104E0,1.5118648E-1,-1.1320306E0,-2.1149339E-1,-2.8886506E-1,1.2018987E0,-3.3470815E-1,1.9353625E-1,-6.6668075E-1,-1.0012694E-2,1.8252832E-1,-1.8084495E0,3.6806908E-1,1.8920523E-1,3.1533554E-2,3.7042182E-2,-9.725336E-2,-1.450128E-2,1.5402102E-1,1.1238332E-1,-2.9061347E-1,1.2410268E0,1.0206842E0,-3.4878554E0,9.193272E-1,1.6416715E-1,4.932571E-2,1.3320507E-1,-1.9213823E0,-2.9037976E-1,-4.51002E-2,-4.8838553E-1,1.6393197E-1,-1.1555277E0,-1.569013E-1,1.208043E0,3.9108178E-1,1.0444084E0,-1.9328842E0,-6.3131966E-2,9.221455E-1,-3.5198897E-1,-1.5870366E0,1.1924183E0,2.6774955E-1,-7.262546E-1,3.8973895E-1,1.3018258E0,3.7130285E-2,1.1941582E0,3.1710975E-2,2.8486192E-1,-8.037987E-1,9.9132854E-1,2.5825626E-1,1.0863065E0,-1.9392032E-2,1.3193616E-1,-4.2891434E-1,4.1454247E-1,1.0213221E0,-1.0205154E0,1.1696818E-1,-1.430208E0,-5.5138814E-1,-4.5076588E-1,7.231857E-1,-1.4232099E0,2.3813577E-1,1.477485E-1,-2.2747628E-1,3.0691534E-1,1.2501075E0,1.7331575E-1,-9.022966E-1,-3.154147E-1,4.8190695E-1,-1.1092763E0,-1.8813425E0,9.1786367E-1,-1.2343038E0,1.548854E-1,1.9145095E-1,-3.8636145E-1,1.5622997E-1,-1.9002187E-1,-5.616283E-1,1.5742947E-1,-1.9468541E-1,-2.8976375E-1,-6.467262E-2,3.5911515E-2,-3.0917752E-1,9.029686E-2,-1.8162394E-1,5.2118497E-3,-2.7385294E-1,1.1144843E-1,2.1762955E-1,1.4852905E-1,-1.0677683E-1,1.8526955E-1,-2.6125506E-2,2.167435E-3,-2.9079175E-1,1.9686782E-1,-2.9585468E-2,1.4865029E-1,-2.7956688E-1,-1.11181475E-1,2.9742867E-2,-2.9087234E-1,2.5185736E-2,-2.052705E-1,1.9270913E-1,8.757124E-2,2.5348777E-2,-6.878574E-2,-2.0878437E-1,8.635716E-2,-2.4730775E-1,1.9534363E-1,1.5076499E-1,1.8087848E-1,9.51083E-2,2.1025583E-2,1.366586E-1,-2.3022212E-1,-3.842424E-2,1.5471992E-1,4.6213355E-2,2.5478866E-2,1.6851772E-1,1.7730938E-1,1.3404456E-1,4.0053405E-2,-5.4323856E-2,-7.9873905E-2,1.3636775E-1,4.7187887E-2,1.7489305E-1,1.6093785E-1,1.8673858E-2,-1.8734857E-1,2.3233246E-2,1.2657623E-1,-7.364871E-2,-2.3754875E-1,-1.92845E-1,8.437544E-3,-1.8468091E-1,-1.2530534E-1,8.387014E-2,1.2784119E-1,-4.044478E-2,-2.620107E-1,-9.013701E-2,1.5502825E-1,-8.468122E-2,1.8564373E-1,-2.77194E-1,1.901562E-1,-6.563254E-2,2.465721E-2,-2.8128797E-1,1.9616188E-1,-1.445989E-1,-6.203172E-2,-2.721287E-1,-2.8418973E-1,4.420108E-2,1.6242573E-1,-8.2645014E-2,-2.5268987E-1,-4.133889E-2],"categories":[],"categories_nodes":[],"categories_segments":[],"categories_sizes":[],"default_left":[0,0,0,0,0,0,0,0,0,0,0,0,0,0,0,0,0,0,0,0,0,0,0,0,0,0,0,0,0,0,0,0,0,0,0,0,0,0,0,0,0,0,0,0,0,0,0,0,0,0,0,0,0,0,0,0,0,0,0,0,0,0,0,0,0,0,0,0,0,0,0,0,0,0,0,0,0,0,0,0,0,0,0,0,0,0,0,0,0,0,0,0,0,0,0,0,0,0,0,0,0,0,0,0,0,0,0,0,0,0,0,0,0,0,0,0,0,0,0,0,0,0,0,0,0,0,0,0,0,0,0,0,0,0,0,0,0,0,0,0,0,0,0,0,0,0,0,0,0,0,0,0,0,0,0,0,0,0,0,0,0,0,0,0,0,0,0,0,0,0,0,0,0,0,0,0,0,0,0,0,0,0,0,0,0,0,0,0,0,0,0,0,0,0,0,0,0,0,0,0,0,0,0,0,0,0,0,0,0,0,0,0,0,0,0,0,0,0,0,0,0,0,0,0,0,0,0,0,0,0,0,0,0,0,0,0,0,0,0,0,0,0,0,0,0,0,0,0,0,0,0,0,0,0,0],"id":2,"left_children":[1,3,5,7,9,11,13,15,17,19,21,23,25,27,29,-1,31,33,35,37,39,41,43,-1,-1,45,47,49,51,53,55,57,59,61,63,65,67,69,-1,71,73,75,77,79,81,-1,-1,-1,83,85,87,89,91,93,95,97,99,101,103,105,107,109,111,113,115,117,-1,119,121,123,125,-1,127,129,131,133,135,137,139,141,143,145,147,149,-1,151,153,-1,155,-1,-1,157,159,-1,-1,-1,-1,-1,-1,-1,-1,161,163,165,167,-1,-1,-1,169,-1,-1,171,-1,173,175,177,179,181,183,185,187,189,191,193,195,197,199,201,-1,203,-1,205,207,209,211,213,-1,215,217,219,221,223,225,227,229,231,233,235,237,-1,-1,239,241,-1,243,-1,245,247,249,251,253,-1,-1,-1,-1,-1,-1,-1,-1,-1,-1,-1,-1,-1,-1,-1,-1,-1,-1,-1,-1,-1,-1,-1,-1,-1,-1,-1,-1,-1,-1,-1,-1,-1,-1,-1,-1,-1,-1,-1,-1,-1,-1,-1,-1,-1,-1,-1,-1,-1,-1,-1,-1,-1,-1,-1,-1,-1,-1,-1,-1,-1,-1,-1,-1,-1,-1,-1,-1,-1,-1,-1,-1,-1,-1,-1,-1,-1,-1,-1,-1,-1,-1,-1,-1,-1,-1,-1,-1,-1,-1,-1,-1,-1,-1],"loss_changes":[3.7522473E4,6.979161E3,3.5333281E3,5.651454E3,1.3347305E3,5.751953E1,2.5400195E3,1.5222461E3,1.4709786E3,1.2685859E3,3.5177072E2,2.2798538E-1,1.7341797E1,1.2753765E3,2.4023633E2,0E0,1.0885708E3,3.4025415E2,1.0318729E3,2.0554909E2,9.094336E1,4.812245E1,6.4802E1,0E0,0E0,3.8745243E1,1.5820312E-1,1.3480493E2,9.082062E1,5.080757E0,2.555249E1,4.504834E1,5.0549683E1,5.559326E1,1.281847E2,2.1970142E2,9.334562E2,1.234928E2,0E0,2.4035156E1,6.606931E1,1.2170792E1,2.6372013E1,4.1356293E1,3.3850723E1,0E0,0E0,0E0,1.4750763E1,6.1214844E1,5.07048E1,2.1447182E0,8.0507935E1,6.047478E-1,7.699258E-1,1.1566417E0,1.1971924E1,4.9243652E1,2.4205515E2,9.35626E-2,1.9069641E1,4.336426E0,9.221966E0,1.226413E2,3.3987312E0,1.1401416E2,0E0,6.4342487E2,5.0083325E2,4.083318E1,4.9978554E1,0E0,5.859375E-1,1.3037109E0,1.6551136E1,9.860964E0,2.076683E0,1.3243444E1,7.4239044E0,8.938256E0,4.149933E0,2.416311E1,1.2030918E1,1.324203E1,0E0,3.515564E1,2.419103E1,0E0,1.00449745E2,0E0,0E0,9.12738E0,1.7945747E1,0E0,0E0,0E0,0E0,0E0,0E0,0E0,0E0,1.2810059E1,1.729751E2,2.5180511E0,1.8086285E2,0E0,0E0,0E0,1.2093506E0,0E0,0E0,1.3258621E1,0E0,8.274707E1,4.65516E1,1.6766129E0,6.680151E0,3.394925E0,4.6435547E0,4.9578107E2,1.7065057E2,2.1058519E2,3.0558826E2,1.5284805E1,9.152672E0,3.4793526E1,2.0128557E1,3.5351562E-1,0E0,5.1315308E-2,0E0,9.266382E0,6.0763893E0,4.992962E-1,3.7467296E0,7.787399E-1,0E0,9.231224E0,8.913363E0,7.669489E0,1.0713234E0,2.7262259E0,1.1993642E1,1.9850159E0,3.4791894E0,1.3808206E1,4.8285427E0,5.4184685E0,4.4096403E0,0E0,0E0,8.9381966E1,2.376123E1,0E0,2.146063E1,0E0,4.222744E1,1.0633362E1,6.2645874E0,4.178705E0,1.8245316E0,0E0,0E0,0E0,0E0,0E0,0E0,0E0,0E0,0E0,0E0,0E0,0E0,0E0,0E0,0E0,0E0,0E0,0E0,0E0,0E0,0E0,0E0,0E0,0E0,0E0,0E0,0E0,0E0,0E0,0E0,0E0,0E0,0E0,0E0,0E0,0E0,0E0,0E0,0E0,0E0,0E0,0E0,0E0,0E0,0E0,0E0,0E0,0E0,0E0,0E0,0E0,0E0,0E0,0E0,0E0,0E0,0E0,0E0,0E0,0E0,0E0,0E0,0E0,0E0,0E0,0E0,0E0,0E0,0E0,0E0,0E0,0E0,0E0,0E0,0E0,0E0,0E0,0E0,0E0,0E0,0E0,0E0,0E0,0E0,0E0,0E0,0E0,0E0,0E0,0E0,0E0,0E0,0E0,0E0],"parents":[2147483647,0,0,1,1,2,2,3,3,4,4,5,5,6,6,7,7,8,8,9,9,10,10,11,11,12,12,13,13,14,14,16,16,17,17,18,18,19,19,20,20,21,21,22,22,25,25,26,26,27,27,28,28,29,29,30,30,31,31,32,32,33,33,34,34,35,35,36,36,37,37,39,39,40,40,41,41,42,42,43,43,44,44,48,48,49,49,50,50,51,51,52,52,53,53,54,54,55,55,56,56,57,57,58,58,59,59,60,60,61,61,62,62,63,63,64,64,65,65,67,67,68,68,69,69,70,70,72,72,73,73,74,74,75,75,76,76,77,77,78,78,79,79,80,80,81,81,82,82,83,83,85,85,86,86,88,88,91,91,92,92,101,101,102,102,103,103,104,104,108,108,111,111,113,113,114,114,115,115,116,116,117,117,118,118,119,119,120,120,121,121,122,122,123,123,124,124,125,125,126,126,127,127,129,129,131,131,132,132,133,133,134,134,135,135,137,137,138,138,139,139,140,140,141,141,142,142,143,143,144,144,145,145,146,146,147,147,148,148,151,151,152,152,154,154,156,156,157,157,158,158,159,159,160,160],"right_children":[2,4,6,8,10,12,14,16,18,20,22,24,26,28,30,-1,32,34,36,38,40,42,44,-1,-1,46,48,50,52,54,56,58,60,62,64,66,68,70,-1,72,74,76,78,80,82,-1,-1,-1,84,86,88,90,92,94,96,98,100,102,104,106,108,110,112,114,116,118,-1,120,122,124,126,-1,128,130,132,134,136,138,140,142,144,146,148,150,-1,152,154,-1,156,-1,-1,158,160,-1,-1,-1,-1,-1,-1,-1,-1,162,164,166,168,-1,-1,-1,170,-1,-1,172,-1,174,176,178,180,182,184,186,188,190,192,194,196,198,200,202,-1,204,-1,206,208,210,212,214,-1,216,218,220,222,224,226,228,230,232,234,236,238,-1,-1,240,242,-1,244,-1,246,248,250,252,254,-1,-1,-1,-1,-1,-1,-1,-1,-1,-1,-1,-1,-1,-1,-1,-1,-1,-1,-1,-1,-1,-1,-1,-1,-1,-1,-1,-1,-1,-1,-1,-1,-1,-1,-1,-1,-1,-1,-1,-1,-1,-1,-1,-1,-1,-1,-1,-1,-1,-1,-1,-1,-1,-1,-1,-1,-1,-1,-1,-1,-1,-1,-1,-1,-1,-1,-1,-1,-1,-1,-1,-1,-1,-1,-1,-1,-1,-1,-1,-1,-1,-1,-1,-1,-1,-1,-1,-1,-1,-1,-1,-1,-1,-1],"split_conditions":[4.9059176E4,4.56E7,2.0007334E1,2E0,6.46E2,1.3E2,7.138716E3,4.3E1,5.4E1,1.1E2,1.3E1,1.13570125E5,1.11113716E2,3E0,1.54E3,-2.898737E-1,1.5E1,8.90793E-1,3E0,1E0,2.02E2,3E0,1.08E3,1.6578066E-1,3.7130285E-2,3.15542E-1,1.789352E1,3E0,5.3E1,3E0,1.7041988E1,6.38E2,5.4E1,4.7E1,5E0,3.54E2,4E0,6E0,-2.8779098E-1,4E0,3E0,1.066E3,8.512E8,1.056E3,3.7E1,1.7325E-1,-2.7131096E-1,-2.90728E-1,2E0,1.2472E4,5.3E1,5.7763668E1,8.1E1,3E0,8.8175E1,1E0,2.4232104E3,3.8590872E3,6.39E2,2.775764E4,1E0,1.14E2,5E0,2E0,8.558913E3,4E0,1.8854572E-1,1.1E1,3E0,1.01E2,4E0,-2.2806035E-1,5.2E1,3E0,3.4E1,1.064E3,3E-5,3E0,2.17E3,7E0,2E0,2.3E1,1.064E9,4.85145E-1,-2.8886506E-1,4.32E2,5.2E1,1.9353625E-1,5.4E1,-1.0012694E-2,1.8252832E-1,2E0,2.1E1,1.8920523E-1,3.1533554E-2,3.7042182E-2,-9.725336E-2,-1.450128E-2,1.5402102E-1,1.1238332E-1,-2.9061347E-1,6.98E2,8E0,2E0,2.100199E4,1.6416715E-1,4.932571E-2,1.3320507E-1,2.08E2,-2.9037976E-1,-4.51002E-2,1.004E3,1.6393197E-1,2E0,1E1,3E0,5.2E1,4E0,2E0,3.62E2,5E0,1.142602E0,2E0,4.3E1,5.1428572E7,1.1E1,1.2E1,1.1E-5,3.7130285E-2,1E0,3.1710975E-2,8E0,9E0,2E0,4E0,2E0,-1.9392032E-2,7E0,1.1E1,2E0,7E0,7E0,3.2E1,3E1,3.2E1,9E0,1.6E1,1.1E1,1.73E3,1.477485E-1,-2.2747628E-1,5E1,8E0,1.7331575E-1,2.22E2,-3.154147E-1,1.54E3,2.6E1,1.3608357E2,6.170994E3,8.8E1,1.548854E-1,1.9145095E-1,-3.8636145E-1,1.5622997E-1,-1.9002187E-1,-5.616283E-1,1.5742947E-1,-1.9468541E-1,-2.8976375E-1,-6.467262E-2,3.5911515E-2,-3.0917752E-1,9.029686E-2,-1.8162394E-1,5.2118497E-3,-2.7385294E-1,1.1144843E-1,2.1762955E-1,1.4852905E-1,-1.0677683E-1,1.8526955E-1,-2.6125506E-2,2.167435E-3,-2.9079175E-1,1.9686782E-1,-2.9585468E-2,1.4865029E-1,-2.7956688E-1,-1.11181475E-1,2.9742867E-2,-2.9087234E-1,2.5185736E-2,-2.052705E-1,1.9270913E-1,8.757124E-2,2.5348777E-2,-6.878574E-2,-2.0878437E-1,8.635716E-2,-2.4730775E-1,1.9534363E-1,1.5076499E-1,1.8087848E-1,9.51083E-2,2.1025583E-2,1.366586E-1,-2.3022212E-1,-3.842424E-2,1.5471992E-1,4.6213355E-2,2.5478866E-2,1.6851772E-1,1.7730938E-1,1.3404456E-1,4.0053405E-2,-5.4323856E-2,-7.9873905E-2,1.3636775E-1,4.7187887E-2,1.7489305E-1,1.6093785E-1,1.8673858E-2,-1.8734857E-1,2.3233246E-2,1.2657623E-1,-7.364871E-2,-2.3754875E-1,-1.92845E-1,8.437544E-3,-1.8468091E-1,-1.2530534E-1,8.387014E-2,1.2784119E-1,-4.044478E-2,-2.620107E-1,-9.013701E-2,1.5502825E-1,-8.468122E-2,1.8564373E-1,-2.77194E-1,1.901562E-1,-6.563254E-2,2.465721E-2,-2.8128797E-1,1.9616188E-1,-1.445989E-1,-6.203172E-2,-2.721287E-1,-2.8418973E-1,4.420108E-2,1.6242573E-1,-8.2645014E-2,-2.5268987E-1,-4.133889E-2],"split_indices":[10,9,13,30,6,6,16,1,17,6,21,10,8,30,6,0,12,8,3,11,6,21,6,0,0,0,13,22,17,30,8,17,5,17,2,7,11,30,0,3,25,6,9,6,21,0,0,0,22,6,17,13,17,22,14,2,9,15,17,10,2,1,11,24,9,4,0,4,22,1,23,0,21,2,21,6,0,22,6,29,24,30,9,0,0,6,17,0,17,0,0,29,4,0,0,0,0,0,0,0,0,6,4,29,10,0,0,0,18,0,0,6,0,25,22,30,17,22,21,6,12,0,24,1,9,30,23,0,0,2,0,22,22,23,29,25,0,21,22,24,25,22,25,21,21,22,22,29,6,0,0,17,2,0,4,0,6,4,13,15,17,0,0,0,0,0,0,0,0,0,0,0,0,0,0,0,0,0,0,0,0,0,0,0,0,0,0,0,0,0,0,0,0,0,0,0,0,0,0,0,0,0,0,0,0,0,0,0,0,0,0,0,0,0,0,0,0,0,0,0,0,0,0,0,0,0,0,0,0,0,0,0,0,0,0,0,0,0,0,0,0,0,0,0,0,0,0,0,0,0,0,0,0,0,0],"split_type":[0,0,0,0,0,0,0,0,0,0,0,0,0,0,0,0,0,0,0,0,0,0,0,0,0,0,0,0,0,0,0,0,0,0,0,0,0,0,0,0,0,0,0,0,0,0,0,0,0,0,0,0,0,0,0,0,0,0,0,0,0,0,0,0,0,0,0,0,0,0,0,0,0,0,0,0,0,0,0,0,0,0,0,0,0,0,0,0,0,0,0,0,0,0,0,0,0,0,0,0,0,0,0,0,0,0,0,0,0,0,0,0,0,0,0,0,0,0,0,0,0,0,0,0,0,0,0,0,0,0,0,0,0,0,0,0,0,0,0,0,0,0,0,0,0,0,0,0,0,0,0,0,0,0,0,0,0,0,0,0,0,0,0,0,0,0,0,0,0,0,0,0,0,0,0,0,0,0,0,0,0,0,0,0,0,0,0,0,0,0,0,0,0,0,0,0,0,0,0,0,0,0,0,0,0,0,0,0,0,0,0,0,0,0,0,0,0,0,0,0,0,0,0,0,0,0,0,0,0,0,0,0,0,0,0,0,0,0,0,0,0,0,0,0,0,0,0,0,0,0,0,0,0,0,0],"sum_hessian":[3.5968492E4,2.6045266E4,9.923226E3,1.2274083E4,1.3771184E4,7.9574473E3,1.9657778E3,5.1418057E3,7.132277E3,1.2947837E4,8.233469E2,6.0592065E0,7.951388E3,1.1737207E3,7.920571E2,1.8209372E2,4.959712E3,1.6445852E3,5.487692E3,6.570214E2,1.2290815E4,5.056735E2,3.176734E2,5.005915E0,1.0532911E0,1.8615791E1,7.9327725E3,9.243432E2,2.4937753E2,2.6608257E1,7.6544885E2,4.820874E3,1.3883821E2,6.2587286E2,1.0187123E3,4.4901672E2,5.0386753E3,5.9905695E2,5.796449E1,1.20476045E4,2.4321056E2,1.7896255E2,3.2671094E2,2.2113718E2,9.6536224E1,5.6320705E0,1.298372E1,7.900804E3,3.196849E1,8.4906805E2,7.5275154E1,1.2252803E1,2.3712473E2,2.4486452E1,2.1218057E0,3.1899157E0,7.622589E2,4.1883413E3,6.325326E2,5.840043E0,1.3299817E2,6.112092E2,1.4663662E1,9.8727625E2,3.1436012E1,4.2551508E2,2.350165E1,3.5641348E3,1.4745404E3,3.5161255E2,2.4744443E2,2.2310886E0,1.2045373E4,1.2536838E2,1.1784217E2,7.927899E1,9.968356E1,1.9567677E2,1.3103416E2,3.3634205E1,1.8750298E2,6.8230316E1,2.8305904E1,6.5240602E0,2.5444431E1,8.22699E2,2.6369072E1,1.5991233E1,5.928392E1,1.3483536E0,1.0904449E1,2.1904042E2,1.8084316E1,2.3473185E1,1.0132673E0,1.0372539E0,1.0845518E0,1.0714175E0,2.1184983E0,1.1814486E0,7.6107745E2,1.9182065E3,2.2701348E3,1.1754074E1,6.207785E2,4.5213237E0,1.3187194E0,1.9211583E0,1.3107701E2,6.0918036E2,2.0288842E0,1.0151766E1,4.511896E0,8.4291785E2,1.4435838E2,2.3393192E1,8.04282E0,1.2681895E1,4.1283316E2,2.685165E3,8.7896954E2,9.815372E2,4.9300327E2,5.6221203E1,2.9539133E2,1.97853E2,4.959143E1,1.204432E4,1.0532911E0,1.23520905E2,1.8474741E0,1.0268168E2,1.5160491E1,2.879473E1,5.0484264E1,9.846205E1,1.2215143E0,1.3585574E2,5.9821033E1,1.0599566E2,2.5038507E1,8.43128E0,2.5202925E1,1.8024814E2,7.2548294E0,3.334799E1,3.488233E1,2.3312881E1,4.993023E0,3.531492E0,2.992568E0,4.242665E1,7.8027234E2,6.987747E0,1.9381327E1,2.5975683E1,3.330824E1,2.2211426E1,1.96829E2,1.3782537E1,4.3017797E0,2.822548E2,1.6359518E3,1.2378009E1,2.2577568E3,1.8310105E0,9.923063E0,5.868439E2,3.3934624E1,1.2987645E2,1.2005613E0,7.519827E0,2.6319394E0,2.5411108E1,8.175068E2,1.3036604E2,1.3992346E1,9.417152E0,1.3976039E1,5.27801E0,2.7648103E0,1.0953898E1,1.727997E0,1.2061725E0,4.1162698E2,2.3774065E2,2.4474246E3,8.583978E2,2.0571737E1,5.746958E2,4.0684134E2,4.1052948E2,8.247379E1,1.4750367E0,5.4746166E1,6.915618E1,2.2623515E2,1.4231209E2,5.55409E1,4.610288E1,3.4885511E0,1.202209E4,2.2230038E1,1.19864525E2,3.6563833E0,8.4403E1,1.8278675E1,5.7210774E0,9.439413E0,2.6715624E1,2.0791056E0,4.6889843E1,3.5944197E0,6.234362E1,3.611843E1,1.0704816E2,2.880759E1,5.6081726E1,3.7393067E0,9.480312E1,1.1192539E1,2.3490686E1,1.5478201E0,7.0067105E0,1.4245691E0,1.1302147E1,1.3900777E1,8.261131E1,9.763683E1,4.3151217E0,2.9397078E0,2.4275793E1,9.072195E0,3.0993969E1,3.8883605E0,1.5923607E1,7.389274E0,2.3634493E0,2.6295736E0,2.9926708E1,1.2499944E1,7.724652E2,7.8071437E0,9.641807E0,9.73952E0,2.12606E1,1.2047639E1,1.1977059E1,1.0234366E1,1.9576578E2,1.063216E0,1.262709E1,1.1554469E0,2.4118247E0,1.8899549E0],"tree_param":{"num_deleted":"0","num_feature":"32","num_nodes":"255","size_leaf_vector":"1"}},{"base_weights":[2.1372853E-2,6.162005E-1,-1.4019694E0,1.1155513E-1,1.0778805E0,-1.690881E0,-2.9964367E-1,8.699486E-1,-3.8008726E-1,1.1581459E0,-8.12904E-2,2.2664554E-1,-1.694429E0,4.830367E-1,-1.5378425E0,-2.5442803E-1,9.755481E-1,-1.4816046E0,-2.339894E-1,-1.1807628E-1,1.2330772E0,4.4694754E-1,-6.8995255E-1,1.1140258E0,-2.66201E-1,-1.7012032E0,-1.0684938E0,9.963849E-1,-1.3696282E0,1.0223262E0,-1.6868657E0,1.0249146E0,-1.4770961E0,-1.695694E0,-8.5085833E-1,-1.4603856E0,-1.4204687E-1,3.3985768E-2,-2.525755E-1,1.2461532E0,6.164444E-1,8.6095685E-1,2.84221E-1,-9.644441E-1,-2.0655647E-1,1.777634E-1,4.5183323E-2,7.940453E-1,-1.7023636E0,1.2525846E0,-1.6188024E0,1.1085143E0,-1.9225577E-1,-1.5621036E0,6.736673E-3,-6.85606E-4,1.9148593E-1,7.0234835E-1,-1.69751E0,9.6578497E-1,1.1855701E0,1.555506E-1,-1.6143441E0,-1.7001253E0,-4.016664E-2,-2.5382552E-1,-1.6065177E0,-1.6117299E0,1.8112633E-1,6.772174E-1,-2.299345E-1,3.6888185E-1,-4.237968E-1,-2.0317312E-1,1.2468208E0,1.1172273E0,1.2004628E-1,4.6384534E-1,1.1165186E0,3.400859E-1,-7.8705496E-1,-2.5926867E-1,-1.1258107E0,-9.0373114E-2,-2.4356118E-1,1.3534506E-1,3.4558717E-2,1.0373626E-1,-1.7031403E0,1.9686775E-1,4.719056E-2,-2.898199E-1,-2.5246283E-1,2.4293974E-2,1.2133853E0,1.1744822E0,-1.0272902E0,9.536293E-1,-1.664227E0,8.9063704E-1,-2.5485232E-1,1.6151655E-1,-2.637243E-1,-2.5597496E-2,1.5717444E-1,-2.5584096E-1,3.1479746E-1,1.0773093E0,4.5567024E-1,1.1934183E0,-4.2882243E-1,1.3527752E-1,-2.5406447E-1,-2.5526717E-1,-9.0324685E-2,-6.129723E-1,1.9118549E-1,-1.7150698E0,1.5436566E-1,1.1047338E0,-1.6895502E0,8.887308E-1,-1.56817E0,7.62147E-1,-3.3569628E-1,1.1337754E0,2.3219791E-1,-6.063431E-1,3.4101444E-1,1.2468972E0,3.4558717E-2,1.1425915E0,5.001654E-1,2.4916355E-1,-6.938051E-1,1.0378007E0,-7.337932E-2,1.6888702E-1,3.5557732E-2,2.7444166E-1,1.0703503E0,1.339494E-1,-1.0249937E0,-1.3354657E0,-5.7621088E-2,5.6447285E-1,-1.1973546E0,-4.5257688E-1,3.0796498E-1,-1.7038119E0,2.51133E-1,-1.6848236E-1,1.181295E-1,1.8258359E-1,-2.67471E-1,2.0105416E-1,1.2324003E0,1.8034837E-1,3.198547E-2,-1.6131434E0,6.501192E-1,1.6915053E-1,-3.7126586E-2,-1.6998234E0,8.5484064E-1,1.0609189E0,-1.0062497E-1,-9.398813E-2,1.3784686E-1,1.64627E-1,3.8656235E-2,1.7486854E-1,5.3818177E-2,-6.5565996E-2,1.8169479E-1,-1.1008323E-1,1.3175708E-1,-2.6029694E-1,-1.0831506E-1,1.7524998E-1,4.1013982E-2,1.9901718E-3,-2.5422338E-1,-2.4678038E-1,1.4739598E-1,1.832088E-1,-2.9220495E-1,1.4344342E-1,-2.2738083E-1,-7.452611E-2,1.4508792E-2,-1.8495679E-1,1.8437296E-1,2.132976E-2,9.014976E-2,-6.591213E-2,-2.064729E-1,7.666793E-2,-2.186107E-1,1.8711004E-1,1.4051919E-1,1.8270552E-1,1.411111E-1,-4.503139E-2,1.2537888E-1,1.806655E-2,1.2597607E-1,-2.0018691E-1,-3.2826655E-2,1.6344455E-1,5.4392654E-2,-6.930839E-2,7.990198E-2,2.998407E-2,1.5559937E-1,1.7460442E-1,7.375149E-2,-2.3076509E-1,-7.9502E-2,-8.62664E-2,-2.826443E-1,1.4681098E-2,-2.6210356E-1,-2.0497993E-2,1.5902793E-1,-1.8351762E-1,-7.305469E-2,5.8901742E-2,-9.1083705E-2,8.396353E-2,-5.5886973E-2,-2.7773926E-1,-2.5513142E-1,9.9095896E-2,-2.7587457E-2,1.7386854E-1,-2.7333638E-1,1.8640494E-1,4.8121143E-2,-2.788316E-1,1.7910792E-3,1.5191448E-1,-2.9639943E-2,-8.6757556E-2,-2.5837937E-1,3.660068E-2,1.5171109E-1,1.7672206E-1,-8.3779596E-2],"categories":[],"categories_nodes":[],"categories_segments":[],"categories_sizes":[],"default_left":[0,0,0,0,0,0,0,0,0,0,0,0,0,0,0,0,0,0,0,0,0,0,0,0,0,0,0,0,0,0,0,0,0,0,0,0,0,0,0,0,0,0,0,0,0,0,0,0,0,0,0,0,0,0,0,0,0,0,0,0,0,0,0,0,0,0,0,0,0,0,0,0,0,0,0,0,0,0,0,0,0,0,0,0,0,0,0,0,0,0,0,0,0,0,0,0,0,0,0,0,0,0,0,0,0,0,0,0,0,0,0,0,0,0,0,0,0,0,0,0,0,0,0,0,0,0,0,0,0,0,0,0,0,0,0,0,0,0,0,0,0,0,0,0,0,0,0,0,0,0,0,0,0,0,0,0,0,0,0,0,0,0,0,0,0,0,0,0,0,0,0,0,0,0,0,0,0,0,0,0,0,0,0,0,0,0,0,0,0,0,0,0,0,0,0,0,0,0,0,0,0,0,0,0,0,0,0,0,0,0,0,0,0,0,0,0,0,0,0,0,0,0,0,0,0,0,0,0,0,0,0,0,0,0,0,0,0,0,0,0,0,0,0,0,0,0,0,0,0],"id":3,"left_children":[1,3,5,7,9,11,13,15,17,19,21,23,25,27,29,-1,31,33,35,37,39,41,43,45,-1,47,49,51,53,55,57,59,61,63,65,67,69,71,-1,73,75,77,79,81,83,-1,-1,85,87,89,91,93,95,97,99,101,-1,103,105,107,109,-1,111,113,-1,115,117,119,-1,121,123,125,127,-1,129,131,133,135,137,139,141,143,145,147,-1,-1,-1,-1,149,-1,-1,151,-1,153,155,157,159,161,163,165,-1,-1,-1,-1,-1,-1,167,169,171,173,-1,-1,-1,-1,-1,175,-1,177,-1,179,181,183,185,187,189,191,193,195,197,199,-1,201,203,205,207,209,211,-1,-1,213,215,-1,217,219,221,223,225,227,229,231,233,-1,-1,-1,-1,235,237,-1,-1,239,241,-1,-1,243,245,247,-1,-1,-1,-1,-1,-1,-1,-1,-1,-1,-1,-1,-1,-1,-1,-1,-1,-1,-1,-1,-1,-1,-1,-1,-1,-1,-1,-1,-1,-1,-1,-1,-1,-1,-1,-1,-1,-1,-1,-1,-1,-1,-1,-1,-1,-1,-1,-1,-1,-1,-1,-1,-1,-1,-1,-1,-1,-1,-1,-1,-1,-1,-1,-1,-1,-1,-1,-1,-1,-1,-1,-1,-1,-1,-1,-1,-1,-1,-1,-1,-1,-1,-1],"loss_changes":[2.8679504E4,5.565963E3,3.1791465E3,4.2565728E3,1.1608936E3,5.420117E1,2.0112144E3,1.218346E3,1.11429E3,1.1159717E3,2.6038016E2,2.948937E1,3.166211E1,1.2109653E3,3.0835742E2,0E0,5.2373535E2,1.080564E2,6.894612E2,1.5434212E2,8.809766E1,2.8971107E1,4.9721497E1,2.9844666E-1,0E0,2.3964844E1,1.1344512E2,1.330246E2,7.32254E1,1.1661453E1,2.0516846E1,3.9024414E1,3.117978E1,3.3691406E0,9.32038E1,1.7413623E2,4.0991925E2,9.085769E1,0E0,2.0423828E1,5.7249443E1,1.1849747E1,1.898745E1,2.6983109E1,2.249867E1,0E0,0E0,5.5217266E-2,1.5689453E1,5.575142E-1,5.573303E0,1.0352246E2,1.0021246E2,6.3880554E1,5.4136242E1,2.0684412E1,0E0,1.4086528E0,1.2866943E1,1.7566089E2,3.938208E1,0E0,1.7808868E1,7.03125E-2,0E0,6.506E1,2.7912766E1,8.726831E1,0E0,2.6336755E2,5.395984E2,3.551375E1,3.516847E1,0E0,5.5078125E-1,1.2251282E0,1.2472438E1,1.531701E1,3.39859E-1,1.3991219E1,7.2333174E0,9.891393E0,2.4227783E1,1.8631966E1,0E0,0E0,0E0,0E0,1.0671875E1,0E0,0E0,4.9082236E0,0E0,1.7755283E2,1.5736572E1,6.3656235E-1,5.449202E1,2.389326E0,2.2379517E1,6.998846E0,0E0,0E0,0E0,0E0,0E0,0E0,2.7808688E0,4.1779785E1,3.7918022E1,3.3524902E1,0E0,0E0,0E0,0E0,0E0,1.7865059E1,0E0,5.188904E-1,0E0,3.0736446E-1,3.55188E0,1.2172815E2,5.3082794E1,2.2059012E2,3.237782E2,1.3168968E1,9.592684E0,2.5431557E1,1.5702276E1,5.136719E-1,0E0,5.2137756E-1,1.9465017E0,7.635543E0,4.6659994E0,4.4346237E-1,6.480258E0,0E0,0E0,1.541857E1,7.4131393E-1,0E0,2.8213472E0,1.9223852E0,1.0610148E1,3.1297948E0,2.8736572E0,9.066502E0,1.0770267E1,2.34375E-1,7.544318E-1,0E0,0E0,0E0,0E0,3.4105965E1,7.251953E0,0E0,0E0,1.6232613E1,4.7468786E0,0E0,0E0,4.871765E0,1.278367E-1,4.7791862E0,0E0,0E0,0E0,0E0,0E0,0E0,0E0,0E0,0E0,0E0,0E0,0E0,0E0,0E0,0E0,0E0,0E0,0E0,0E0,0E0,0E0,0E0,0E0,0E0,0E0,0E0,0E0,0E0,0E0,0E0,0E0,0E0,0E0,0E0,0E0,0E0,0E0,0E0,0E0,0E0,0E0,0E0,0E0,0E0,0E0,0E0,0E0,0E0,0E0,0E0,0E0,0E0,0E0,0E0,0E0,0E0,0E0,0E0,0E0,0E0,0E0,0E0,0E0,0E0,0E0,0E0,0E0,0E0,0E0,0E0,0E0,0E0,0E0,0E0,0E0,0E0,0E0,0E0,0E0,0E0,0E0,0E0,0E0],"parents":[2147483647,0,0,1,1,2,2,3,3,4,4,5,5,6,6,7,7,8,8,9,9,10,10,11,11,12,12,13,13,14,14,16,16,17,17,18,18,19,19,20,20,21,21,22,22,23,23,25,25,26,26,27,27,28,28,29,29,30,30,31,31,32,32,33,33,34,34,35,35,36,36,37,37,39,39,40,40,41,41,42,42,43,43,44,44,47,47,48,48,49,49,50,50,51,51,52,52,53,53,54,54,55,55,57,57,58,58,59,59,60,60,62,62,63,63,65,65,66,66,67,67,69,69,70,70,71,71,72,72,74,74,75,75,76,76,77,77,78,78,79,79,80,80,81,81,82,82,83,83,88,88,91,91,93,93,94,94,95,95,96,96,97,97,98,98,99,99,106,106,107,107,108,108,109,109,115,115,117,117,119,119,120,120,121,121,122,122,123,123,124,124,125,125,126,126,127,127,128,128,129,129,131,131,132,132,133,133,134,134,135,135,136,136,139,139,140,140,142,142,143,143,144,144,145,145,146,146,147,147,148,148,149,149,150,150,155,155,156,156,159,159,160,160,163,163,164,164,165,165],"right_children":[2,4,6,8,10,12,14,16,18,20,22,24,26,28,30,-1,32,34,36,38,40,42,44,46,-1,48,50,52,54,56,58,60,62,64,66,68,70,72,-1,74,76,78,80,82,84,-1,-1,86,88,90,92,94,96,98,100,102,-1,104,106,108,110,-1,112,114,-1,116,118,120,-1,122,124,126,128,-1,130,132,134,136,138,140,142,144,146,148,-1,-1,-1,-1,150,-1,-1,152,-1,154,156,158,160,162,164,166,-1,-1,-1,-1,-1,-1,168,170,172,174,-1,-1,-1,-1,-1,176,-1,178,-1,180,182,184,186,188,190,192,194,196,198,200,-1,202,204,206,208,210,212,-1,-1,214,216,-1,218,220,222,224,226,228,230,232,234,-1,-1,-1,-1,236,238,-1,-1,240,242,-1,-1,244,246,248,-1,-1,-1,-1,-1,-1,-1,-1,-1,-1,-1,-1,-1,-1,-1,-1,-1,-1,-1,-1,-1,-1,-1,-1,-1,-1,-1,-1,-1,-1,-1,-1,-1,-1,-1,-1,-1,-1,-1,-1,-1,-1,-1,-1,-1,-1,-1,-1,-1,-1,-1,-1,-1,-1,-1,-1,-1,-1,-1,-1,-1,-1,-1,-1,-1,-1,-1,-1,-1,-1,-1,-1,-1,-1,-1,-1,-1,-1,-1,-1,-1,-1,-1],"split_conditions":[3.215171E4,4.56E7,2.2206474E1,2E0,6.46E2,9.148734E1,7.138716E3,4.3E1,4.7E1,1.1E2,7E0,1E1,8.4E1,3E0,1.54E3,-2.5442803E-1,1.5E1,1.141256E0,3E0,1E0,2.02E2,2E0,1.08E3,4E0,-2.66201E-1,1.3E2,1.0543352E6,3.728E3,5E0,1E1,2.4232104E3,1.596E3,1E0,1.14E2,6E0,3.54E2,1.8239438E2,6E0,-2.525755E-1,4E0,3E0,1.066E3,5E0,1.064E3,4.5E1,1.777634E-1,4.5183323E-2,2.44E2,1.62E2,2E0,4.69502E-1,4.32E2,5.2E1,5.3E1,3.568E3,2E0,1.9148593E-1,1.155E3,1.33E2,1E1,2.0065422E3,1.555506E-1,1.7431892E3,4.71344E1,-4.016664E-2,8.033207E1,3.6952988E3,1.94E2,1.8112633E-1,1.9E1,2E0,1.01E2,4E0,-2.0317312E-1,5.2E1,1E0,3.4E1,1.064E3,3E-5,2.268E3,4E-6,1.1E1,1E1,8E0,-2.4356118E-1,1.3534506E-1,3.4558717E-2,1.0373626E-1,3E0,1.9686775E-1,4.719056E-2,6.08E-3,-2.5246283E-1,5E1,2.52674E-1,1.9E1,1.79E2,8E0,1.81E2,6E0,-2.5485232E-1,1.6151655E-1,-2.637243E-1,-2.5597496E-2,1.5717444E-1,-2.5584096E-1,8.982262E1,6.38E2,6.17501E-1,2.99742E1,-4.2882243E-1,1.3527752E-1,-2.5406447E-1,-2.5526717E-1,-9.0324685E-2,4E0,1.9118549E-1,9E0,1.5436566E-1,1.3E1,2E0,2E0,1.8E-5,4.939591E0,7E1,4.3E1,3E0,1.3E1,1.2E1,1.1E-5,3.4558717E-2,2E0,1.6E8,8E0,9E0,6E0,2E0,1.6888702E-1,3.5557732E-2,2E0,4E0,1.339494E-1,6E0,9E0,4.5E1,8E0,2E0,2E0,3.7E1,4.9059176E4,4E0,-1.6848236E-1,1.181295E-1,1.8258359E-1,-2.67471E-1,8.766735E3,6E0,1.8034837E-1,3.198547E-2,9.73174E1,9.14E2,1.6915053E-1,-3.7126586E-2,3.8696848E3,2E0,8.649753E3,-1.0062497E-1,-9.398813E-2,1.3784686E-1,1.64627E-1,3.8656235E-2,1.7486854E-1,5.3818177E-2,-6.5565996E-2,1.8169479E-1,-1.1008323E-1,1.3175708E-1,-2.6029694E-1,-1.0831506E-1,1.7524998E-1,4.1013982E-2,1.9901718E-3,-2.5422338E-1,-2.4678038E-1,1.4739598E-1,1.832088E-1,-2.9220495E-1,1.4344342E-1,-2.2738083E-1,-7.452611E-2,1.4508792E-2,-1.8495679E-1,1.8437296E-1,2.132976E-2,9.014976E-2,-6.591213E-2,-2.064729E-1,7.666793E-2,-2.186107E-1,1.8711004E-1,1.4051919E-1,1.8270552E-1,1.411111E-1,-4.503139E-2,1.2537888E-1,1.806655E-2,1.2597607E-1,-2.0018691E-1,-3.2826655E-2,1.6344455E-1,5.4392654E-2,-6.930839E-2,7.990198E-2,2.998407E-2,1.5559937E-1,1.7460442E-1,7.375149E-2,-2.3076509E-1,-7.9502E-2,-8.62664E-2,-2.826443E-1,1.4681098E-2,-2.6210356E-1,-2.0497993E-2,1.5902793E-1,-1.8351762E-1,-7.305469E-2,5.8901742E-2,-9.1083705E-2,8.396353E-2,-5.5886973E-2,-2.7773926E-1,-2.5513142E-1,9.9095896E-2,-2.7587457E-2,1.7386854E-1,-2.7333638E-1,1.8640494E-1,4.8121143E-2,-2.788316E-1,1.7910792E-3,1.5191448E-1,-2.9639943E-2,-8.6757556E-2,-2.5837937E-1,3.660068E-2,1.5171109E-1,1.7672206E-1,-8.3779596E-2],"split_indices":[10,9,13,30,6,8,16,1,17,6,25,2,20,30,6,0,12,8,3,11,6,25,6,30,0,6,10,6,2,4,9,7,2,1,3,7,10,30,0,3,25,6,22,6,21,0,0,7,7,25,0,6,17,17,6,30,0,18,17,5,13,0,9,10,0,15,15,6,0,24,25,1,23,0,21,2,21,6,0,6,0,25,25,22,0,0,0,0,24,0,0,0,0,17,16,29,17,21,17,30,0,0,0,0,0,0,13,17,0,14,0,0,0,0,0,23,0,23,0,29,21,21,0,0,18,1,29,30,23,0,0,30,9,22,22,21,30,0,0,24,29,0,22,21,21,30,24,23,21,10,25,0,0,0,0,15,21,0,0,13,17,0,0,9,29,15,0,0,0,0,0,0,0,0,0,0,0,0,0,0,0,0,0,0,0,0,0,0,0,0,0,0,0,0,0,0,0,0,0,0,0,0,0,0,0,0,0,0,0,0,0,0,0,0,0,0,0,0,0,0,0,0,0,0,0,0,0,0,0,0,0,0,0,0,0,0,0,0,0,0,0,0,0,0,0,0,0,0,0],"split_type":[0,0,0,0,0,0,0,0,0,0,0,0,0,0,0,0,0,0,0,0,0,0,0,0,0,0,0,0,0,0,0,0,0,0,0,0,0,0,0,0,0,0,0,0,0,0,0,0,0,0,0,0,0,0,0,0,0,0,0,0,0,0,0,0,0,0,0,0,0,0,0,0,0,0,0,0,0,0,0,0,0,0,0,0,0,0,0,0,0,0,0,0,0,0,0,0,0,0,0,0,0,0,0,0,0,0,0,0,0,0,0,0,0,0,0,0,0,0,0,0,0,0,0,0,0,0,0,0,0,0,0,0,0,0,0,0,0,0,0,0,0,0,0,0,0,0,0,0,0,0,0,0,0,0,0,0,0,0,0,0,0,0,0,0,0,0,0,0,0,0,0,0,0,0,0,0,0,0,0,0,0,0,0,0,0,0,0,0,0,0,0,0,0,0,0,0,0,0,0,0,0,0,0,0,0,0,0,0,0,0,0,0,0,0,0,0,0,0,0,0,0,0,0,0,0,0,0,0,0,0,0,0,0,0,0,0,0,0,0,0,0,0,0,0,0,0,0,0,0],"sum_hessian":[3.3872344E4,2.3889338E4,9.983005E3,1.1414171E4,1.2475168E4,7.9094585E3,2.0735461E3,4.488921E3,6.92525E3,1.1667281E4,8.0788605E2,1.4491784E1,7.8949663E3,1.2708417E3,8.0270435E2,1.7682788E2,4.312093E3,8.098881E2,6.115362E3,6.4700336E2,1.1020278E4,4.3266016E2,3.752259E2,1.0347209E1,4.144575E0,7.8087383E3,8.622823E1,9.9547217E2,2.753696E2,4.3831608E1,7.5887274E2,4.227583E3,8.451004E1,6.033942E2,2.0649388E2,4.2545477E2,5.689907E3,5.906222E2,5.63812E1,1.0790439E4,2.2983824E2,1.208648E2,3.1179535E2,2.3869196E2,1.3653392E2,9.094086E0,1.2531234E0,3.31181E0,7.8054263E3,1.628128E1,6.994695E1,9.0972174E2,8.575042E1,2.4146709E2,3.390251E1,8.923487E0,3.4908123E1,3.077661E0,7.557951E2,3.0953457E3,1.1322372E3,4.0353384E0,8.04747E1,6.013374E2,2.0568254E0,1.1610071E2,9.039318E1,4.0298984E2,2.2464937E1,5.5060583E2,5.1393013E3,3.4120438E2,2.4941779E2,2.248902E0,1.0788191E4,1.13791214E2,1.1604703E2,4.842826E1,7.243654E1,2.9699045E2,1.4804921E1,4.493442E1,1.9375754E2,1.2717191E2,9.362013E0,2.2742193E0,1.0375906E0,2.242893E0,7.8031836E3,1.4929187E1,1.3520936E0,3.4813926E0,6.646555E1,8.034082E1,8.293809E2,3.2367153E1,5.3383266E1,9.09444E0,2.3237263E2,2.2645662E1,1.1256848E1,5.7720876E0,3.1513991E0,1.0161068E0,2.0615542E0,7.529182E2,2.8768878E0,2.539117E3,5.562288E2,1.1307479E3,1.4893202E0,2.145461E0,7.832925E1,5.998828E2,1.4545987E0,9.449495E1,2.1605757E1,8.715293E1,3.2402508E0,1.0855688E1,3.9213416E2,5.0375662E2,4.684921E1,4.9450156E2,4.6448E3,5.0622467E1,2.905819E2,2.0152475E2,4.7893036E1,1.0787153E4,1.0375906E0,1.084805E2,5.3107195E0,1.00755974E2,1.5291058E1,2.2963226E1,2.5465033E1,7.139367E1,1.0428715E0,2.7375787E2,2.3232576E1,1.4951105E0,1.3309811E1,6.2034926E0,3.8730927E1,7.5882673E0,1.8616927E2,6.653569E1,6.0636223E1,7.800631E3,2.5526803E0,1.9389352E0,1.5424575E0,4.8594418E1,3.1746405E1,1.5504744E1,8.1387616E2,3.1212366E1,1.1547879E0,3.9593224E1,1.3790043E1,7.996887E0,1.0975534E0,2.2945547E2,2.9171681E0,2.0707973E1,1.9376876E0,1.1101152E0,1.7667727E0,2.4776997E3,6.141705E1,6.545196E1,4.9077686E2,1.2010964E1,1.1187369E3,8.78779E1,6.6170545E0,8.467903E1,2.473897E0,9.707589E0,1.1480988E0,1.2056817E0,3.9092847E2,1.7412006E1,4.863446E2,5.349473E0,4.1499737E1,4.562023E2,3.8299263E1,3.3836965E3,1.2611034E3,1.4988996E0,4.9123566E1,2.3469432E2,5.5887604E1,1.6691614E2,3.460862E1,4.440842E1,3.4846148E0,1.0766667E4,2.0486132E1,7.530103E1,3.3179462E1,1.6004845E0,3.7102349E0,8.3716446E1,1.7039522E1,5.7388477E0,9.55221E0,2.0756083E1,2.207144E0,1.5659757E1,9.805277E0,2.5053783E2,2.3220041E1,1.9124968E1,4.107609E0,5.4983416E0,7.811469E0,3.4590957E0,2.744397E0,3.6329815E1,2.401112E0,3.4429553E0,4.145312E0,1.7887527E2,7.2939982E0,1.0052546E1,5.6483143E1,4.4390034E1,1.624619E1,1.3967853E2,7.6609526E3,1.0478315E0,1.5048488E0,1.0812114E1,4.69263E0,8.044245E2,9.451684E0,3.4267643E1,5.32558E0,9.521967E0,4.268076E0,5.0789075E0,2.2437657E2,1.1171478E0,1.8000203E0,1.9564264E1,1.14371E0],"tree_param":{"num_deleted":"0","num_feature":"32","num_nodes":"249","size_leaf_vector":"1"}},{"base_weights":[2.2432113E-2,5.701156E-1,-1.2754118E0,1.01432145E-1,1.0270183E0,-1.5357783E0,-2.8478009E-1,8.15997E-1,-3.2634735E-1,1.1099195E0,-6.960207E-2,9.6044785E-1,-1.5380124E0,4.4121954E-1,-1.3608752E0,-2.3070052E-1,9.160068E-1,-9.71808E-1,-1.2830445E-1,-1.02588E-1,1.1883097E0,3.3316517E-1,-6.801635E-1,1.5727839E-1,3.2173634E-2,-1.5393795E0,1.5573326E-1,9.575951E-1,-1.2438155E0,9.3451357E-1,-1.5148605E0,9.6284467E-1,-1.3377112E0,-1.50309E0,-6.7708874E-1,-1.344255E0,-2.8513798E-2,3.0129416E-2,-2.2886111E-1,1.2024553E0,5.6047326E-1,7.140527E-1,1.3948259E-1,-8.9619106E-1,-1.806906E-1,-5.510951E-1,-1.5410724E0,1.0807521E0,-2.3644328E-1,-1.4183888E0,4.871383E-2,1.163722E0,-2.6850832E-1,1.6293412E-1,-1.5405209E0,1.0229715E0,7.807317E-1,1.4773038E-1,-1.4620203E0,-1.5363737E0,-1.09872565E-1,-7.6173687E-1,3.2232836E-1,-1.4687803E0,1.7281985E-1,1.621103E-1,-5.024322E-1,4.228501E-1,-2.8390923E-1,-1.8406472E-1,1.2031441E0,1.0621332E0,1.03454895E-1,4.4450817E-1,9.4151E-1,-4.968451E-2,4.3535748E-1,-1.6277419E-1,-1.0265753E0,1.1217184E-1,-8.49451E-1,1.5838762E-1,-2.3533113E-1,-1.5417073E0,3.5639673E-2,-2.4476051E-3,1.1857886E0,1.1203281E0,-9.511677E-1,8.694075E-1,-1.49644E0,9.29481E-1,-1.5039537E0,1.7981437E-1,4.5730397E-1,-1.0943198E0,8.4583414E-1,-1.5484356E0,6.8786675E-1,1.0309281E0,-1.5943713E0,6.518351E-1,1.1179135E0,1.2811077E-1,-2.3025994E-1,-1.5407841E0,-3.581295E-2,-5.9271044E-1,1.4787921E-1,-8.1487435E-1,9.316272E-1,1.0605377E0,2.3215778E-2,1.0804591E0,-1.5377223E0,-4.5373995E-2,8.449888E-1,-2.5525343E-1,-1.4457052E0,1.0855274E0,2.7746207E-1,-9.2016554E-1,-1.0892784E-1,1.2036994E0,8.746513E-1,1.0764666E0,2.1475894E-2,6.1125207E-1,-6.478207E-2,8.6731046E-1,2.1877147E-1,9.586793E-1,-2.2447558E-2,6.7328495E-1,-1.00679696E-1,3.3433536E-1,8.760031E-1,-8.778967E-1,1.0950096E-1,-9.4908285E-1,-1.2977949E0,-8.69992E-1,3.8316074E-1,-1.0910329E0,2.70547E-1,7.234303E-2,-1.5422006E0,1.7505974E-1,-2.3945402E-1,1.795164E-1,2.7152768E-1,1.725194E-1,2.9735012E-2,-1.4566468E0,5.59741E-1,-4.3742105E-2,1.603428E-1,-1.5295448E0,6.4668155E-1,1.1104856E0,-8.881181E-2,-2.3573053E-1,-6.454427E-2,-2.4532162E-2,1.18558176E-1,-3.7095097E-1,-2.1131419E-1,3.4391854E-2,1.4832921E-1,-1.5511218E0,1.034529E-2,3.0311339E-2,1.2382025E-1,1.6054465E-1,1.2124616E-1,-4.3606776E-1,8.832217E-2,1.0819726E-1,-5.2107506E-2,1.7756124E-1,-9.596433E-2,-2.3137909E-1,-8.6730324E-2,1.3903073E-2,-2.7524874E-1,-1.0994511E-1,-2.2988385E-1,1.6680756E-1,5.949203E-2,9.268688E-2,1.8573421E-1,2.6141617E-2,-2.9373923E-1,1.728015E-1,3.8139924E-2,1.8273741E-3,-2.3142324E-1,1.8153436E-1,-2.1977702E-2,-6.285518E-2,1.4261992E-1,6.424011E-3,-1.0889038E-1,-2.4988502E-1,1.752294E-1,-1.6867867E-1,1.7764986E-1,4.721406E-2,-2.1625768E-1,-1.6854097E-1,4.5361996E-2,2.243176E-3,-1.1867241E-1,1.8056738E-1,3.2173634E-2,1.7389421E-1,-1.6597997E-2,1.6373755E-1,7.230093E-2,1.06234774E-1,-8.969731E-2,-1.3059052E-3,-2.17177E-1,1.3625437E-1,3.7311994E-2,2.0756546E-2,1.570982E-1,1.6732764E-1,1.21820085E-1,1.2594229E-1,3.251936E-2,-2.1294346E-2,9.00492E-2,1.10696696E-1,2.8405849E-2,1.4874507E-1,4.6930056E-2,-1.662333E-1,5.677957E-3,1.14916325E-1,-5.9390184E-2,-1.6204205E-1,-2.2076936E-2,-2.345764E-1,-1.0428556E-1,-1.6404992E-1,1.39017E-1,-2.2910718E-2,9.9145E-2,-2.2932915E-2,-1.9832109E-1,1.4892891E-1,-6.5026045E-2,-2.3175302E-1,-1.8536599E-1,1.5901671E-1,-1.5053546E-1,-2.4405524E-1,2.3441844E-2,1.3272253E-1,-2.783327E-2,-2.3833837E-1,-1.4500514E-1,-3.1716146E-2,1.5326668E-1,1.9263664E-1,-2.1220908E-2,-7.013458E-2,-1.3196902E-2,-1.315455E-1,-2.3310582E-1],"categories":[],"categories_nodes":[],"categories_segments":[],"categories_sizes":[],"default_left":[0,0,0,0,0,0,0,0,0,0,0,0,0,0,0,0,0,0,0,0,0,0,0,0,0,0,0,0,0,0,0,0,0,0,0,0,0,0,0,0,0,0,0,0,0,0,0,0,0,0,0,0,0,0,0,0,0,0,0,0,0,0,0,0,0,0,0,0,0,0,0,0,0,0,0,0,0,0,0,0,0,0,0,0,0,0,0,0,0,0,0,0,0,0,0,0,0,0,0,0,0,0,0,0,0,0,0,0,0,0,0,0,0,0,0,0,0,0,0,0,0,0,0,0,0,0,0,0,0,0,0,0,0,0,0,0,0,0,0,0,0,0,0,0,0,0,0,0,0,0,0,0,0,0,0,0,0,0,0,0,0,0,0,0,0,0,0,0,0,0,0,0,0,0,0,0,0,0,0,0,0,0,0,0,0,0,0,0,0,0,0,0,0,0,0,0,0,0,0,0,0,0,0,0,0,0,0,0,0,0,0,0,0,0,0,0,0,0,0,0,0,0,0,0,0,0,0,0,0,0,0,0,0,0,0,0,0,0,0,0,0,0,0,0,0,0,0,0,0,0,0,0,0,0,0,0,0,0,0,0,0,0,0,0,0,0,0,0,0,0,0],"id":4,"left_children":[1,3,5,7,9,11,13,15,17,19,21,23,25,27,29,-1,31,33,35,37,39,41,43,-1,-1,45,-1,47,49,51,53,55,57,59,61,63,65,67,-1,69,71,73,75,77,79,81,83,85,87,89,91,93,95,-1,97,99,101,-1,103,105,107,109,111,113,-1,115,117,119,121,-1,123,125,127,129,131,133,135,137,139,141,143,-1,-1,145,-1,147,149,151,153,155,157,159,161,-1,163,165,167,169,171,173,175,177,179,-1,-1,181,-1,183,-1,185,187,189,191,193,195,197,199,201,203,205,207,209,211,213,215,217,-1,219,221,223,225,227,-1,229,231,233,235,237,239,241,243,245,247,249,251,-1,253,-1,-1,-1,255,-1,-1,257,259,-1,-1,261,263,265,-1,-1,-1,-1,-1,267,-1,-1,-1,269,-1,-1,-1,-1,-1,-1,-1,-1,-1,-1,-1,-1,-1,-1,-1,-1,-1,-1,-1,-1,-1,-1,-1,-1,-1,-1,-1,-1,-1,-1,-1,-1,-1,-1,-1,-1,-1,-1,-1,-1,-1,-1,-1,-1,-1,-1,-1,-1,-1,-1,-1,-1,-1,-1,-1,-1,-1,-1,-1,-1,-1,-1,-1,-1,-1,-1,-1,-1,-1,-1,-1,-1,-1,-1,-1,-1,-1,-1,-1,-1,-1,-1,-1,-1,-1,-1,-1,-1,-1,-1,-1,-1,-1,-1,-1,-1,-1,-1,-1,-1,-1],"loss_changes":[2.243879E4,4.753817E3,2.415879E3,3.350392E3,1.0220156E3,4.2847656E1,1.5248127E3,9.676858E2,8.7630786E2,9.934795E2,1.9474615E2,2.5135136E-1,2.7705078E1,1.01554016E3,2.793152E2,0E0,4.1695825E2,2.5101343E2,6.367182E2,1.2008939E2,8.650879E1,3.510969E1,3.3797363E1,0E0,0E0,1.1542969E1,0E0,1.3155817E2,6.1868683E1,1.4112534E1,5.087683E1,4.1447998E1,2.4707458E1,2.6424927E1,8.7984375E1,1.2541022E2,4.382951E2,7.19385E1,0E0,1.7541016E1,4.9909805E1,9.430496E0,1.7799507E1,2.0818222E1,1.8951653E1,2.4922956E1,8.716797E0,9.211334E1,8.281742E1,4.439377E1,4.728818E1,4.9700165E-1,9.043784E0,0E0,1.3947266E1,6.1980957E1,4.1075806E1,0E0,1.4320709E1,2.8371582E0,8.2335E0,8.682007E1,1.8012026E1,6.836072E1,0E0,4.9027853E2,3.241082E2,2.4666874E1,3.5991486E1,0E0,6.972656E-1,1.2144089E0,9.887425E0,7.007926E0,1.7589188E0,7.2442636E0,5.2260838E0,6.777235E0,2.680481E0,1.8389168E1,8.260229E0,0E0,0E0,8.125E0,0E0,1.3712677E2,7.088623E0,5.839386E-1,4.3399624E1,2.3027663E0,1.757196E1,6.724533E0,2.3279572E-1,0E0,8.762657E-1,7.290797E-1,1.5414047E-1,3.2705078E0,5.2276373E-2,2.4456543E1,2.8003334E1,4.8727753E1,3.1374207E1,0E0,0E0,4.4189453E-2,0E0,9.246818E0,0E0,5.341974E1,2.4129314E0,1.0856457E0,1.8047373E1,3.3255482E-1,2.9423828E0,3.3731284E2,1.0824603E2,1.549129E2,1.681377E2,1.143848E1,1.416757E1,1.7698109E1,2.159601E1,5.3027344E-1,5.696203E0,3.9180756E-1,0E0,3.7988787E0,6.7728925E0,4.3203926E-1,3.2190592E0,1.0483246E0,0E0,8.016567E-1,5.3723984E0,5.8563747E0,1.155199E0,2.061036E0,8.845855E0,1.5463928E1,5.107582E0,7.032202E0,8.119949E0,5.091032E0,3.4941006E0,0E0,4.4785156E0,0E0,0E0,0E0,1.1176819E1,0E0,0E0,1.1812767E1,3.7257E0,0E0,0E0,6.166565E0,1.586735E0,4.54006E0,0E0,0E0,0E0,0E0,0E0,4.155594E-2,0E0,0E0,0E0,6.652832E-2,0E0,0E0,0E0,0E0,0E0,0E0,0E0,0E0,0E0,0E0,0E0,0E0,0E0,0E0,0E0,0E0,0E0,0E0,0E0,0E0,0E0,0E0,0E0,0E0,0E0,0E0,0E0,0E0,0E0,0E0,0E0,0E0,0E0,0E0,0E0,0E0,0E0,0E0,0E0,0E0,0E0,0E0,0E0,0E0,0E0,0E0,0E0,0E0,0E0,0E0,0E0,0E0,0E0,0E0,0E0,0E0,0E0,0E0,0E0,0E0,0E0,0E0,0E0,0E0,0E0,0E0,0E0,0E0,0E0,0E0,0E0,0E0,0E0,0E0,0E0,0E0,0E0,0E0,0E0,0E0,0E0,0E0,0E0,0E0,0E0,0E0,0E0,0E0,0E0,0E0,0E0,0E0,0E0,0E0,0E0,0E0,0E0,0E0,0E0,0E0,0E0],"parents":[2147483647,0,0,1,1,2,2,3,3,4,4,5,5,6,6,7,7,8,8,9,9,10,10,11,11,12,12,13,13,14,14,16,16,17,17,18,18,19,19,20,20,21,21,22,22,25,25,27,27,28,28,29,29,30,30,31,31,32,32,33,33,34,34,35,35,36,36,37,37,39,39,40,40,41,41,42,42,43,43,44,44,45,45,46,46,47,47,48,48,49,49,50,50,51,51,52,52,54,54,55,55,56,56,58,58,59,59,60,60,61,61,62,62,63,63,65,65,66,66,67,67,68,68,70,70,71,71,72,72,73,73,74,74,75,75,76,76,77,77,78,78,79,79,80,80,83,83,85,85,86,86,87,87,88,88,89,89,90,90,91,91,92,92,94,94,95,95,96,96,97,97,98,98,99,99,100,100,101,101,102,102,105,105,107,107,109,109,110,110,111,111,112,112,113,113,114,114,115,115,116,116,117,117,118,118,119,119,120,120,121,121,122,122,123,123,124,124,125,125,127,127,128,128,129,129,130,130,131,131,133,133,134,134,135,135,136,136,137,137,138,138,139,139,140,140,141,141,142,142,143,143,144,144,146,146,150,150,153,153,154,154,157,157,158,158,159,159,165,165,169,169],"right_children":[2,4,6,8,10,12,14,16,18,20,22,24,26,28,30,-1,32,34,36,38,40,42,44,-1,-1,46,-1,48,50,52,54,56,58,60,62,64,66,68,-1,70,72,74,76,78,80,82,84,86,88,90,92,94,96,-1,98,100,102,-1,104,106,108,110,112,114,-1,116,118,120,122,-1,124,126,128,130,132,134,136,138,140,142,144,-1,-1,146,-1,148,150,152,154,156,158,160,162,-1,164,166,168,170,172,174,176,178,180,-1,-1,182,-1,184,-1,186,188,190,192,194,196,198,200,202,204,206,208,210,212,214,216,218,-1,220,222,224,226,228,-1,230,232,234,236,238,240,242,244,246,248,250,252,-1,254,-1,-1,-1,256,-1,-1,258,260,-1,-1,262,264,266,-1,-1,-1,-1,-1,268,-1,-1,-1,270,-1,-1,-1,-1,-1,-1,-1,-1,-1,-1,-1,-1,-1,-1,-1,-1,-1,-1,-1,-1,-1,-1,-1,-1,-1,-1,-1,-1,-1,-1,-1,-1,-1,-1,-1,-1,-1,-1,-1,-1,-1,-1,-1,-1,-1,-1,-1,-1,-1,-1,-1,-1,-1,-1,-1,-1,-1,-1,-1,-1,-1,-1,-1,-1,-1,-1,-1,-1,-1,-1,-1,-1,-1,-1,-1,-1,-1,-1,-1,-1,-1,-1,-1,-1,-1,-1,-1,-1,-1,-1,-1,-1,-1,-1,-1,-1,-1,-1,-1,-1,-1],"split_conditions":[3.215171E4,4.56E7,2.1058708E1,2E0,6.46E2,1.3E2,8.649753E3,4.3E1,5.4E1,1.1E2,1.3E1,1.13570125E5,7.97E2,3E0,1.58E3,-2.3070052E-1,1.5E1,8.90793E-1,3E0,1E0,2.02E2,3E0,1.068E3,1.5727839E-1,3.2173634E-2,1.0084876E2,1.5573326E-1,3.728E3,5E0,3E0,5.3E1,1.3660658E2,1E0,4.7E1,8.2813125E3,3.54E2,4E0,4E0,-2.2886111E-1,4E0,3E0,1.066E3,8.512E8,1.056E3,3.7E1,3.31622E-1,3E0,4.32E2,5.2E1,5.3E1,3.568E3,3E0,9.67E3,1.6293412E-1,1.33E2,1.2184921E4,1.596E3,1.4773038E-1,1.7431892E3,1.14E2,5E0,5E0,5.3E1,4E0,1.7281985E-1,1.1E1,4E0,1.01E2,4.5E1,-1.8406472E-1,1.1E-5,3E0,2E0,1.064E3,3E-5,2E0,2.17E3,7E0,3.6E1,1.4E1,1.064E9,1.5838762E-1,-2.3533113E-1,1.62E2,3.5639673E-2,5E1,6E0,1.9E1,1.79E2,2.013637E0,1.81E2,6E0,7.2571556E1,1.7981437E-1,1.392546E0,3E0,4.51E2,1.9615245E2,2E0,6.38E2,3E0,4E0,4.9599332E4,1.2811077E-1,-2.3025994E-1,3.62E2,-3.581295E-2,1.004E3,1.4787921E-1,6E0,8.558913E3,1.829964E2,4E0,1.3E1,2E0,3.62E2,9.86E2,4E0,1E0,4.3E1,1E1,3E0,1.3E1,5.2E1,5.7E7,7E0,2.1475894E-2,8E0,4.5E1,2E0,4E0,6.832E8,-2.2447558E-2,3E0,1.4E1,1.064E9,4E0,5.616E8,3.2E1,3.5E1,3.8E1,1.4E1,8E0,1.244E3,1.73E3,7.234303E-2,8.4E1,1.7505974E-1,-2.3945402E-1,1.795164E-1,5.8E1,1.725194E-1,2.9735012E-2,9.73174E1,1.636103E5,-4.3742105E-2,1.603428E-1,8.45E2,4E0,6E0,-8.881181E-2,-2.3573053E-1,-6.454427E-2,-2.4532162E-2,1.18558176E-1,2.216788E3,-2.1131419E-1,3.4391854E-2,1.4832921E-1,3E0,1.034529E-2,3.0311339E-2,1.2382025E-1,1.6054465E-1,1.2124616E-1,-4.3606776E-1,8.832217E-2,1.0819726E-1,-5.2107506E-2,1.7756124E-1,-9.596433E-2,-2.3137909E-1,-8.6730324E-2,1.3903073E-2,-2.7524874E-1,-1.0994511E-1,-2.2988385E-1,1.6680756E-1,5.949203E-2,9.268688E-2,1.8573421E-1,2.6141617E-2,-2.9373923E-1,1.728015E-1,3.8139924E-2,1.8273741E-3,-2.3142324E-1,1.8153436E-1,-2.1977702E-2,-6.285518E-2,1.4261992E-1,6.424011E-3,-1.0889038E-1,-2.4988502E-1,1.752294E-1,-1.6867867E-1,1.7764986E-1,4.721406E-2,-2.1625768E-1,-1.6854097E-1,4.5361996E-2,2.243176E-3,-1.1867241E-1,1.8056738E-1,3.2173634E-2,1.7389421E-1,-1.6597997E-2,1.6373755E-1,7.230093E-2,1.06234774E-1,-8.969731E-2,-1.3059052E-3,-2.17177E-1,1.3625437E-1,3.7311994E-2,2.0756546E-2,1.570982E-1,1.6732764E-1,1.21820085E-1,1.2594229E-1,3.251936E-2,-2.1294346E-2,9.00492E-2,1.10696696E-1,2.8405849E-2,1.4874507E-1,4.6930056E-2,-1.662333E-1,5.677957E-3,1.14916325E-1,-5.9390184E-2,-1.6204205E-1,-2.2076936E-2,-2.345764E-1,-1.0428556E-1,-1.6404992E-1,1.39017E-1,-2.2910718E-2,9.9145E-2,-2.2932915E-2,-1.9832109E-1,1.4892891E-1,-6.5026045E-2,-2.3175302E-1,-1.8536599E-1,1.5901671E-1,-1.5053546E-1,-2.4405524E-1,2.3441844E-2,1.3272253E-1,-2.783327E-2,-2.3833837E-1,-1.4500514E-1,-3.1716146E-2,1.5326668E-1,1.9263664E-1,-2.1220908E-2,-7.013458E-2,-1.3196902E-2,-1.315455E-1,-2.3310582E-1],"split_indices":[10,9,13,30,6,6,15,1,17,6,21,10,17,30,6,0,12,8,3,11,6,21,6,0,0,8,0,6,2,25,17,14,2,17,15,7,11,25,0,3,25,6,9,6,21,0,24,6,17,17,6,22,7,0,17,15,7,0,9,1,11,2,17,4,0,4,22,1,17,0,0,2,23,6,0,25,6,29,25,21,9,0,0,7,0,17,21,29,17,0,17,30,13,0,0,21,6,13,29,17,3,12,15,0,0,6,0,6,0,3,9,13,2,29,21,6,6,25,19,1,30,23,30,21,9,21,0,21,21,23,29,9,0,29,29,9,29,9,25,21,21,25,22,6,6,0,20,0,0,0,17,0,0,13,9,0,0,18,30,21,0,0,0,0,0,9,0,0,0,11,0,0,0,0,0,0,0,0,0,0,0,0,0,0,0,0,0,0,0,0,0,0,0,0,0,0,0,0,0,0,0,0,0,0,0,0,0,0,0,0,0,0,0,0,0,0,0,0,0,0,0,0,0,0,0,0,0,0,0,0,0,0,0,0,0,0,0,0,0,0,0,0,0,0,0,0,0,0,0,0,0,0,0,0,0,0,0,0,0,0,0,0,0,0,0,0,0,0,0,0,0],"split_type":[0,0,0,0,0,0,0,0,0,0,0,0,0,0,0,0,0,0,0,0,0,0,0,0,0,0,0,0,0,0,0,0,0,0,0,0,0,0,0,0,0,0,0,0,0,0,0,0,0,0,0,0,0,0,0,0,0,0,0,0,0,0,0,0,0,0,0,0,0,0,0,0,0,0,0,0,0,0,0,0,0,0,0,0,0,0,0,0,0,0,0,0,0,0,0,0,0,0,0,0,0,0,0,0,0,0,0,0,0,0,0,0,0,0,0,0,0,0,0,0,0,0,0,0,0,0,0,0,0,0,0,0,0,0,0,0,0,0,0,0,0,0,0,0,0,0,0,0,0,0,0,0,0,0,0,0,0,0,0,0,0,0,0,0,0,0,0,0,0,0,0,0,0,0,0,0,0,0,0,0,0,0,0,0,0,0,0,0,0,0,0,0,0,0,0,0,0,0,0,0,0,0,0,0,0,0,0,0,0,0,0,0,0,0,0,0,0,0,0,0,0,0,0,0,0,0,0,0,0,0,0,0,0,0,0,0,0,0,0,0,0,0,0,0,0,0,0,0,0,0,0,0,0,0,0,0,0,0,0,0,0,0,0,0,0,0,0,0,0,0,0],"sum_hessian":[3.1565992E4,2.2198781E4,9.367211E3,1.0958722E4,1.124006E4,7.417206E3,1.950005E3,4.103428E3,6.8552935E3,1.0450054E4,7.900059E2,6.2488546E0,7.4109575E3,1.1647699E3,7.852351E2,1.6664348E2,3.9367847E3,1.6086101E3,5.246683E3,6.3456354E2,9.81549E3,4.762764E2,3.1372952E2,5.226193E0,1.0226617E0,7.4074287E3,3.5284872E0,8.9188525E2,2.728847E2,4.9046867E1,7.3618823E2,3.8571953E3,7.958939E1,5.7249304E2,1.0361171E3,3.969819E2,4.849701E3,5.813299E2,5.3233627E1,9.598318E3,2.1717145E2,1.5964297E2,3.1663342E2,2.1845222E2,9.527728E1,1.3225111E1,7.3942036E3,8.0858044E2,8.3304756E1,2.4032787E2,3.2556843E1,4.122504E1,7.821828E0,6.7879653E0,7.2940027E2,2.8963215E3,9.608737E2,3.6916726E0,7.589772E1,5.5903503E2,1.3457986E1,9.554322E2,8.0684875E1,3.785125E2,1.84694E1,3.459033E3,1.3906682E3,2.5815186E2,3.2317804E2,2.2159305E0,9.596103E3,1.02898155E2,1.142733E2,7.441407E1,8.5228905E1,1.9365349E2,1.2297994E2,3.331309E1,1.8513914E2,6.683937E1,2.8437918E1,5.1135874E0,8.111524E0,7.3916987E3,2.5052505E0,7.1562454E1,7.37018E2,2.8546688E1,5.475807E1,7.594114E0,2.3273375E2,2.102918E1,1.1527662E1,3.861278E1,2.6122587E0,4.5028477E0,3.3189805E0,7.271228E2,2.2774525E0,2.8881477E3,8.17371E0,6.972607E2,2.6361307E2,1.9936056E0,7.390412E1,5.5695465E2,2.0804055E0,9.660248E0,3.797738E0,9.26866E2,2.8566135E1,2.2531517E1,5.815336E1,9.580668E0,3.6893185E2,2.6536787E3,8.053543E2,1.1029244E3,2.877438E2,4.528354E1,2.1286833E2,6.87899E1,2.5438812E2,9.57725E3,1.8852789E1,1.011491E2,1.7490485E0,2.7782589E1,8.6490715E1,2.4912012E1,4.9502056E1,8.4028145E1,1.2007583E0,1.1955462E1,1.8169801E2,1.0147467E2,2.1505276E1,8.572742E0,2.474035E1,1.474961E2,3.7643044E1,1.3975729E1,5.286364E1,2.3413519E1,5.024399E0,1.5631185E0,7.3901353E3,4.143088E1,3.0131569E1,7.2796063E2,9.057396E0,2.741341E1,1.1332774E0,4.1057926E1,1.3700143E1,1.0461042E0,6.54801E0,2.2947534E2,3.2584052E0,1.9034952E1,1.994229E0,1.0408747E1,1.1189163E0,1.0898402E0,1.5224185E0,2.0247188E0,2.478129E0,1.1151009E0,2.2038796E0,7.2595807E2,1.164714E0,1.0475869E0,1.2298656E0,2.4509077E3,4.372401E2,4.897347E0,3.2763631E0,6.521893E2,4.50714E1,2.5441144E2,9.20163E0,5.553465E2,1.608161E0,6.8218513E0,2.838397E0,8.337358E2,9.3130264E1,2.0555603E1,8.010533E0,7.7367682E0,1.4794749E1,5.4881416E1,3.2719417E0,8.454155E0,1.1265142E0,1.2052287E0,3.6772662E2,1.970114E2,2.4566672E3,6.1979652E1,7.4337463E2,6.7583276E2,4.270916E2,2.6572208E2,2.2021738E1,1.4936051E0,4.3789932E1,2.0914769E2,3.7206337E0,5.90455E1,9.744398E0,2.1612143E2,3.8266693E1,9.576228E3,1.0226617E0,1.4490159E1,4.3626285E0,9.782516E1,3.3239477E0,2.6103426E1,1.679163E0,8.408769E1,2.4030216E0,2.2922237E1,1.9897741E0,4.618748E1,3.3145769E0,3.7394787E1,4.6633358E1,8.147488E0,3.807975E0,1.72346E2,9.352031E0,2.573262E1,7.574205E1,1.7210476E1,4.294799E0,6.681948E0,1.890794E0,1.0536593E1,1.4203756E1,1.2645926E2,2.1036837E1,2.500655E1,1.2636495E1,1.2776537E1,1.1991919E0,1.8201809E1,3.466183E1,4.9561825E0,1.8457336E1,2.2775652E0,2.7468336E0,7.3187515E3,7.138402E1,5.700516E0,3.3568795E0,3.7127106E1,3.9308228E0,9.409013E0,4.29113E0,2.0592783E2,2.3547504E1,1.1237837E0,2.1346214E0,1.669243E1,2.3425207E0,1.0230811E0,1.0016378E0,4.427106E0,7.21531E2],"tree_param":{"num_deleted":"0","num_feature":"32","num_nodes":"271","size_leaf_vector":"1"}},{"base_weights":[2.2759099E-2,5.2886397E-1,-1.1839381E0,9.22605E-2,9.824831E-1,-1.4227232E0,-2.6477414E-1,7.664782E-1,-2.8233084E-1,1.0805006E0,5.2536204E-2,9.1128576E-1,-1.424815E0,3.9850214E-1,-1.2924591E0,-2.137847E-1,8.607981E-1,-1.2028162E0,-1.7170595E-1,-8.953215E-2,1.1661253E0,4.9520764E-1,-4.5406732E-1,1.5023562E-1,2.9959992E-2,-1.4261194E0,9.6011394E-1,9.0377903E-1,-1.1414139E0,9.1790384E-1,-1.4140792E0,9.049947E-1,-1.2361002E0,-1.4244694E0,-6.0763377E-1,-1.2278042E0,-1.0258984E-1,2.642507E-2,-2.1184932E-1,-1.688477E-1,1.1668365E0,8.973513E-1,3.2587618E-1,-2.6060018E-1,-8.0518794E-1,-1.430259E0,-1.0169173E0,4.44023E-2,1.6142073E-1,1.0240946E0,-2.0135242E-1,9.454908E-1,-1.2245725E0,-3.6555387E-2,1.7718466E-1,1.4057758E-1,-1.4220748E0,8.38266E-1,1.0922424E0,1.4076991E-1,-1.3521498E0,-1.4289175E0,-3.1960573E-2,-1.11085474E-1,-1.3114613E0,-1.3521113E0,1.6887763E-1,2.590562E-1,-2.5081223E-1,5.074647E-1,-1.7322238E-1,1.1678307E0,5.5403394E-1,1.0897754E0,7.0197785E-1,3.850064E-1,-2.574923E-1,-4.064776E-1,1.3566449E0,-1.2479793E0,-6.278246E-1,-1.4308913E0,3.2148577E-2,1.7796716E-1,-1.3920988E0,2.5573414E-2,1.1241791E0,1.0770996E0,-8.299773E-1,-1.1949246E-2,1.6525865E-1,-1.3630527E0,-1.23803765E-1,1.4879839E-1,-2.1870683E-1,-1.4292012E0,2.2675219E-1,9.650613E-1,3.0829847E-1,-4.9936444E-1,1.1135477E0,1.21634364E-1,-2.1322921E-1,-2.145878E-1,-6.759161E-2,-4.0348887E-1,1.8500327E-1,-1.4001431E0,1.3818444E-1,1.0132266E0,-1.4180149E0,7.8440154E-1,1.3423954E-1,9.5522135E-1,-3.223787E-1,1.0448414E0,3.3061966E-1,-7.257427E-1,-4.4349547E-2,1.1684487E0,8.192513E-1,-2.0432596E-1,7.545402E-1,1.7015404E-1,2.3636737E-1,-1.0449465E-1,1.007579E0,3.3089307E-1,1.0337197E0,-6.053922E-1,5.4410183E-1,-5.472486E-1,5.222918E-1,2.3797397E-1,7.5112253E-1,2.4019226E-1,-1.3503882E0,-4.8459637E-1,-2.3705009E-1,6.7224585E-2,-1.4313769E0,-3.773589E-1,-2.1477711E-1,1.6934519E-1,-2.1973652E-1,1.4007011E-1,1.1444501E0,1.6623418E-1,2.764522E-2,-1.4029129E0,2.2782034E-1,-1.3915921E0,7.544474E-1,7.396918E-1,-2.0740384E-1,-2.1504192E-1,-5.929887E-1,-9.243262E-2,1.24138944E-1,1.482675E-1,1.7694974E-2,-5.4676514E-3,7.707235E-2,1.2525633E-1,-2.2981536E-1,1.6841403E-1,-3.1923375E-1,2.3901531E-2,-1.042418E-1,-2.1681327E-1,-1.2633343E-1,1.6235326E-1,3.547568E-2,2.2791356E-3,-2.1370082E-1,1.4385203E-1,-3.3658946E-1,-5.907265E-3,1.1494188E-1,-7.771387E-2,1.7818397E-1,-4.071989E-2,-2.2456293E-1,-1.5530714E-1,1.7211431E-1,3.4918223E-2,1.5194575E-1,-1.2979758E-1,9.674197E-2,6.727318E-3,-1.03118874E-1,1.7528106E-1,2.9959992E-2,1.6726367E-1,-1.4442428E-2,-8.2545E-2,4.9863733E-2,4.6757374E-2,1.3180597E-1,-9.6272804E-2,1.0127344E-1,1.0706554E-1,-6.0166236E-2,1.6323414E-1,9.6983396E-2,6.9865875E-2,-3.3625674E-3,1.6579464E-1,-4.5547374E-2,5.9501838E-2,-1.180634E-1,1.068599E-1,-6.6126816E-2,-4.554698E-2,-1.652549E-1,1.8987378E-1,1.4535764E-2,2.0098548E-1,-8.798944E-2,-2.5872735E-2,7.515602E-2,-1.050647E-1,-2.2084993E-1,-1.0233169E-1,2.1684504E-1,-7.51232E-2,-2.147675E-1,-1.2772964E-1,3.7258822E-2,1.6126421E-1,-2.0681043E-1,1.7343515E-1,4.0452622E-2,-9.124124E-2,-2.4514483E-1,-1.9131248E-1,1.128318E-1,-5.3864557E-2,-2.120394E-1,2.6264006E-2,1.3675952E-1,1.5031987E-1,-7.2714784E-3,1.0804904E-1,-1.6943371E-1],"categories":[],"categories_nodes":[],"categories_segments":[],"categories_sizes":[],"default_left":[0,0,0,0,0,0,0,0,0,0,0,0,0,0,0,0,0,0,0,0,0,0,0,0,0,0,0,0,0,0,0,0,0,0,0,0,0,0,0,0,0,0,0,0,0,0,0,0,0,0,0,0,0,0,0,0,0,0,0,0,0,0,0,0,0,0,0,0,0,0,0,0,0,0,0,0,0,0,0,0,0,0,0,0,0,0,0,0,0,0,0,0,0,0,0,0,0,0,0,0,0,0,0,0,0,0,0,0,0,0,0,0,0,0,0,0,0,0,0,0,0,0,0,0,0,0,0,0,0,0,0,0,0,0,0,0,0,0,0,0,0,0,0,0,0,0,0,0,0,0,0,0,0,0,0,0,0,0,0,0,0,0,0,0,0,0,0,0,0,0,0,0,0,0,0,0,0,0,0,0,0,0,0,0,0,0,0,0,0,0,0,0,0,0,0,0,0,0,0,0,0,0,0,0,0,0,0,0,0,0,0,0,0,0,0,0,0,0,0,0,0,0,0,0,0,0,0,0,0,0,0,0,0,0,0,0,0,0,0,0,0,0,0,0,0],"id":5,"left_children":[1,3,5,7,9,11,13,15,17,19,21,23,25,27,29,-1,31,33,35,37,39,41,43,-1,-1,45,47,49,51,53,55,57,59,61,63,65,67,69,-1,-1,71,73,75,77,79,81,83,-1,-1,85,87,89,91,93,-1,-1,95,97,99,-1,101,103,-1,105,107,109,-1,111,113,115,117,119,121,123,125,127,129,131,133,135,137,139,-1,-1,141,143,145,147,149,-1,-1,151,153,-1,-1,155,157,159,161,163,165,-1,-1,-1,-1,167,-1,169,-1,171,173,175,177,179,181,183,185,187,189,191,193,195,197,-1,199,201,203,205,207,209,211,213,215,-1,217,219,221,223,-1,-1,225,227,-1,-1,-1,229,231,-1,-1,233,235,237,239,241,-1,-1,243,-1,-1,-1,-1,-1,-1,-1,-1,-1,-1,-1,-1,-1,-1,-1,-1,-1,-1,-1,-1,-1,-1,-1,-1,-1,-1,-1,-1,-1,-1,-1,-1,-1,-1,-1,-1,-1,-1,-1,-1,-1,-1,-1,-1,-1,-1,-1,-1,-1,-1,-1,-1,-1,-1,-1,-1,-1,-1,-1,-1,-1,-1,-1,-1,-1,-1,-1,-1,-1,-1,-1,-1,-1,-1,-1,-1,-1,-1,-1,-1,-1,-1,-1,-1,-1,-1,-1,-1],"loss_changes":[1.7838709E4,4.0755278E3,1.8939639E3,2.6487856E3,9.198867E2,3.4748047E1,1.2145468E3,7.755686E2,6.863464E2,9.1479395E2,2.1627197E2,2.332387E-1,2.2664062E1,8.438517E2,1.8916553E2,0E0,3.3399927E2,9.454065E1,4.3929822E2,9.567803E1,1.51796875E1,3.4750282E1,3.0343315E1,0E0,0E0,1.0135742E1,1.5824795E-2,1.0872479E2,4.767679E1,9.356014E0,1.3793091E1,4.304541E1,2.0086418E1,2.5308838E0,6.904718E1,1.0968457E2,3.030008E2,5.5237988E1,0E0,0E0,4.536133E0,4.946068E0,1.2644817E1,6.93142E1,1.172747E1,7.3476562E0,6.1154007E1,0E0,0E0,7.354266E1,6.596345E1,1.8233404E0,3.9192383E1,1.4578955E1,0E0,0E0,8.090454E0,1.7429688E2,3.1789795E1,0E0,1.1837326E1,2.1044922E-1,0E0,4.6563046E1,1.7487427E1,5.62453E1,0E0,1.0765437E2,3.463292E2,1.568499E1,2.8917349E1,8.7109375E-1,2.538372E0,2.5750275E0,1.9375526E1,1.1264317E1,9.830939E0,3.534099E1,2.1967773E0,7.113655E0,1.502636E1,6.8164062E0,0E0,0E0,1.9590454E0,1.1363478E2,1.3187195E1,5.495548E-1,3.3556606E1,0E0,0E0,1.4904724E1,3.3584488E1,0E0,0E0,1.578125E0,2.3877873E0,4.141284E1,3.566339E1,1.8997879E1,2.954358E1,0E0,0E0,0E0,0E0,1.6022736E1,0E0,7.8030396E-1,0E0,2.870741E-1,3.2893066E0,1.6887009E2,1.4587932E2,7.7683655E1,2.2597485E2,1.0002502E1,8.33425E0,1.5256573E1,1.9003351E1,5.185547E-1,5.0832405E0,9.379351E-1,4.1966438E-1,0E0,2.3496888E0,5.7211375E0,9.5007324E-1,1.4623253E1,2.7273884E0,4.7243357E0,2.1106799E0,3.1178902E1,1.12008915E1,0E0,7.557829E0,4.86567E-1,2.2842407E0,3.9919083E1,0E0,0E0,1.84375E0,1.3074694E0,0E0,0E0,0E0,2.2277708E1,6.4448853E0,0E0,0E0,5.57251E0,1.6826202E1,4.6396484E0,1.7727089E-1,3.858471E0,0E0,0E0,4.4496026E0,0E0,0E0,0E0,0E0,0E0,0E0,0E0,0E0,0E0,0E0,0E0,0E0,0E0,0E0,0E0,0E0,0E0,0E0,0E0,0E0,0E0,0E0,0E0,0E0,0E0,0E0,0E0,0E0,0E0,0E0,0E0,0E0,0E0,0E0,0E0,0E0,0E0,0E0,0E0,0E0,0E0,0E0,0E0,0E0,0E0,0E0,0E0,0E0,0E0,0E0,0E0,0E0,0E0,0E0,0E0,0E0,0E0,0E0,0E0,0E0,0E0,0E0,0E0,0E0,0E0,0E0,0E0,0E0,0E0,0E0,0E0,0E0,0E0,0E0,0E0,0E0,0E0,0E0,0E0,0E0,0E0,0E0,0E0,0E0,0E0,0E0,0E0,0E0],"parents":[2147483647,0,0,1,1,2,2,3,3,4,4,5,5,6,6,7,7,8,8,9,9,10,10,11,11,12,12,13,13,14,14,16,16,17,17,18,18,19,19,20,20,21,21,22,22,25,25,26,26,27,27,28,28,29,29,30,30,31,31,32,32,33,33,34,34,35,35,36,36,37,37,40,40,41,41,42,42,43,43,44,44,45,45,46,46,49,49,50,50,51,51,52,52,53,53,56,56,57,57,58,58,60,60,61,61,63,63,64,64,65,65,67,67,68,68,69,69,70,70,71,71,72,72,73,73,74,74,75,75,76,76,77,77,78,78,79,79,80,80,81,81,84,84,85,85,86,86,87,87,88,88,91,91,92,92,95,95,96,96,97,97,98,98,99,99,100,100,105,105,107,107,109,109,110,110,111,111,112,112,113,113,114,114,115,115,116,116,117,117,118,118,119,119,120,120,121,121,122,122,124,124,125,125,126,126,127,127,128,128,129,129,130,130,131,131,132,132,134,134,135,135,136,136,137,137,140,140,141,141,145,145,146,146,149,149,150,150,151,151,152,152,153,153,156,156],"right_children":[2,4,6,8,10,12,14,16,18,20,22,24,26,28,30,-1,32,34,36,38,40,42,44,-1,-1,46,48,50,52,54,56,58,60,62,64,66,68,70,-1,-1,72,74,76,78,80,82,84,-1,-1,86,88,90,92,94,-1,-1,96,98,100,-1,102,104,-1,106,108,110,-1,112,114,116,118,120,122,124,126,128,130,132,134,136,138,140,-1,-1,142,144,146,148,150,-1,-1,152,154,-1,-1,156,158,160,162,164,166,-1,-1,-1,-1,168,-1,170,-1,172,174,176,178,180,182,184,186,188,190,192,194,196,198,-1,200,202,204,206,208,210,212,214,216,-1,218,220,222,224,-1,-1,226,228,-1,-1,-1,230,232,-1,-1,234,236,238,240,242,-1,-1,244,-1,-1,-1,-1,-1,-1,-1,-1,-1,-1,-1,-1,-1,-1,-1,-1,-1,-1,-1,-1,-1,-1,-1,-1,-1,-1,-1,-1,-1,-1,-1,-1,-1,-1,-1,-1,-1,-1,-1,-1,-1,-1,-1,-1,-1,-1,-1,-1,-1,-1,-1,-1,-1,-1,-1,-1,-1,-1,-1,-1,-1,-1,-1,-1,-1,-1,-1,-1,-1,-1,-1,-1,-1,-1,-1,-1,-1,-1,-1,-1,-1,-1,-1,-1,-1,-1,-1,-1],"split_conditions":[3.215171E4,4.56E7,2.1058708E1,2E0,2.14E2,1.3E2,7.138716E3,4.3E1,4.7E1,1.1E2,7E0,1.13570125E5,7.97E2,3E0,1.54E3,-2.137847E-1,1.5E1,1.141256E0,3E0,1E0,4E0,2E0,3.3E1,1.5023562E-1,2.9959992E-2,8.4E1,9.14E2,3.728E3,5.3E1,1E1,2.0007161E3,1.596E3,1E0,1.14E2,6E0,3.54E2,3E0,3E0,-2.1184932E-1,-1.688477E-1,2.02E2,8.62E2,4E0,3E1,3.5E1,3E0,1.0543352E6,4.44023E-2,1.6142073E-1,4.32E2,5.2E1,5.7763668E1,5E0,2E0,1.7718466E-1,1.4057758E-1,1.33E2,1E1,2.99742E1,1.4076991E-1,1.7431892E3,4.71344E1,-3.1960573E-2,8.033207E1,3.6952988E3,1.94E2,1.6887763E-1,2E0,4.22E2,1.01E2,4.5E1,1.1E-5,4E-6,2E0,1.066E3,2E0,8.512E8,1.1E1,3.2E1,4E0,4.5E1,1.62E2,3.2148577E-2,1.7796716E-1,2.78498E-1,5E1,2.52674E-1,1.9E1,1.18E2,-1.1949246E-2,1.6525865E-1,1.81E2,2.1E1,1.4879839E-1,-2.1870683E-1,1.7102167E2,8.982262E1,6.38E2,8.94E2,1.4195376E3,2.0065422E3,1.21634364E-1,-2.1322921E-1,-2.145878E-1,-6.759161E-2,6E0,1.8500327E-1,2.1E1,1.3818444E-1,1.3E1,9.418662E0,2.0065422E3,2E0,5.4E1,1.4E1,4.3E1,3E0,2E0,1.3E1,5.2E1,5.7E7,3E0,1.03E2,1.7015404E-1,1.6E8,1.064E3,1.066E3,2E0,1.89E3,7.46E2,5E0,2.2E1,1.2E1,2.3797397E-1,1.1E1,1.066E3,4E8,4E1,-2.3705009E-1,6.7224585E-2,9.148734E1,4.033E-3,-2.1477711E-1,1.6934519E-1,-2.1973652E-1,1.27E2,6E0,1.6623418E-1,2.764522E-2,2E0,2.13E2,3.8696848E3,2E0,5E0,-2.0740384E-1,-2.1504192E-1,2E0,-9.243262E-2,1.24138944E-1,1.482675E-1,1.7694974E-2,-5.4676514E-3,7.707235E-2,1.2525633E-1,-2.2981536E-1,1.6841403E-1,-3.1923375E-1,2.3901531E-2,-1.042418E-1,-2.1681327E-1,-1.2633343E-1,1.6235326E-1,3.547568E-2,2.2791356E-3,-2.1370082E-1,1.4385203E-1,-3.3658946E-1,-5.907265E-3,1.1494188E-1,-7.771387E-2,1.7818397E-1,-4.071989E-2,-2.2456293E-1,-1.5530714E-1,1.7211431E-1,3.4918223E-2,1.5194575E-1,-1.2979758E-1,9.674197E-2,6.727318E-3,-1.03118874E-1,1.7528106E-1,2.9959992E-2,1.6726367E-1,-1.4442428E-2,-8.2545E-2,4.9863733E-2,4.6757374E-2,1.3180597E-1,-9.6272804E-2,1.0127344E-1,1.0706554E-1,-6.0166236E-2,1.6323414E-1,9.6983396E-2,6.9865875E-2,-3.3625674E-3,1.6579464E-1,-4.5547374E-2,5.9501838E-2,-1.180634E-1,1.068599E-1,-6.6126816E-2,-4.554698E-2,-1.652549E-1,1.8987378E-1,1.4535764E-2,2.0098548E-1,-8.798944E-2,-2.5872735E-2,7.515602E-2,-1.050647E-1,-2.2084993E-1,-1.0233169E-1,2.1684504E-1,-7.51232E-2,-2.147675E-1,-1.2772964E-1,3.7258822E-2,1.6126421E-1,-2.0681043E-1,1.7343515E-1,4.0452622E-2,-9.124124E-2,-2.4514483E-1,-1.9131248E-1,1.128318E-1,-5.3864557E-2,-2.120394E-1,2.6264006E-2,1.3675952E-1,1.5031987E-1,-7.2714784E-3,1.0804904E-1,-1.6943371E-1],"split_indices":[10,9,13,30,6,6,16,1,17,6,21,10,17,30,6,0,12,8,3,11,3,30,21,0,0,20,17,6,17,4,9,7,2,1,3,7,30,25,0,0,6,6,22,21,21,24,10,0,0,6,17,13,2,30,0,0,17,5,14,0,9,10,0,15,15,6,0,25,6,1,17,0,0,2,6,24,9,22,25,22,21,7,0,0,0,17,16,29,17,0,0,17,4,0,0,13,13,17,6,15,13,0,0,0,0,25,0,25,0,29,15,13,23,17,21,1,29,24,30,21,9,22,17,0,9,6,17,23,6,6,29,21,29,0,22,6,9,30,0,0,8,0,0,0,0,17,21,0,0,22,18,9,29,21,0,0,22,0,0,0,0,0,0,0,0,0,0,0,0,0,0,0,0,0,0,0,0,0,0,0,0,0,0,0,0,0,0,0,0,0,0,0,0,0,0,0,0,0,0,0,0,0,0,0,0,0,0,0,0,0,0,0,0,0,0,0,0,0,0,0,0,0,0,0,0,0,0,0,0,0,0,0,0,0,0,0,0,0,0,0,0,0,0,0,0],"split_type":[0,0,0,0,0,0,0,0,0,0,0,0,0,0,0,0,0,0,0,0,0,0,0,0,0,0,0,0,0,0,0,0,0,0,0,0,0,0,0,0,0,0,0,0,0,0,0,0,0,0,0,0,0,0,0,0,0,0,0,0,0,0,0,0,0,0,0,0,0,0,0,0,0,0,0,0,0,0,0,0,0,0,0,0,0,0,0,0,0,0,0,0,0,0,0,0,0,0,0,0,0,0,0,0,0,0,0,0,0,0,0,0,0,0,0,0,0,0,0,0,0,0,0,0,0,0,0,0,0,0,0,0,0,0,0,0,0,0,0,0,0,0,0,0,0,0,0,0,0,0,0,0,0,0,0,0,0,0,0,0,0,0,0,0,0,0,0,0,0,0,0,0,0,0,0,0,0,0,0,0,0,0,0,0,0,0,0,0,0,0,0,0,0,0,0,0,0,0,0,0,0,0,0,0,0,0,0,0,0,0,0,0,0,0,0,0,0,0,0,0,0,0,0,0,0,0,0,0,0,0,0,0,0,0,0,0,0,0,0,0,0,0,0,0,0],"sum_hessian":[2.9207504E4,2.0577562E4,8.629941E3,1.0486054E4,1.0091509E4,6.849894E3,1.7800476E3,3.7448125E3,6.741241E3,9.129126E3,9.623825E2,5.74453E0,6.8441494E3,1.0821995E3,6.9784814E2,1.5392616E2,3.5908862E3,7.2218933E2,6.019052E3,6.225222E2,8.5066045E3,5.1361066E2,4.4877182E2,4.736017E0,1.0085132E0,6.8408096E3,3.3396697E0,8.151468E2,2.6705267E2,3.6053482E1,6.617947E2,3.5173198E3,7.356661E1,5.2520374E2,1.9698561E2,3.6868954E2,5.6503623E3,5.7325073E2,4.927151E1,2.148468E0,8.504456E3,1.5091194E2,3.6269873E2,2.9046698E2,1.5830484E2,6.7698306E3,7.09791E1,1.0248669E0,2.314803E0,7.35181E2,7.996576E1,9.836302E0,2.5721637E2,7.982215E0,2.8071268E1,1.8489788E0,6.599457E2,2.597231E3,9.2008875E2,3.3680744E0,7.019854E1,5.231034E2,2.1003368E0,1.1617928E2,8.080633E1,3.505984E2,1.8091156E1,1.6423832E3,4.007979E3,1.6768384E2,4.055669E2,8.489775E3,1.4679759E1,7.372349E1,7.718845E1,3.2962772E2,3.3071037E1,2.67121E2,2.3345974E1,4.354859E1,1.14756256E2,6.7673584E3,2.4720526E0,1.00129175E1,6.0966187E1,6.709045E1,6.680906E2,2.6123743E1,5.3842014E1,1.3656266E0,8.470675E0,2.2826201E2,2.895436E1,4.80652E0,3.1756952E0,6.572382E2,2.707494E0,2.0951443E3,5.0208658E2,1.1857273E1,9.082315E2,1.8494352E0,6.8349106E1,5.217517E2,1.3517327E0,9.6000046E1,2.017924E1,7.807798E1,2.728344E0,9.1139965E0,3.414844E2,3.1428662E2,1.3280966E3,2.2382066E2,3.7841584E3,4.0304096E1,1.2737974E2,7.582947E1,3.2973743E2,8.472404E3,1.7371243E1,3.065667E0,1.1614092E1,6.97503E1,3.9731917E0,2.1392452E1,5.5796E1,3.056422E2,2.3985504E1,2.3232613E1,9.838424E0,2.3231972E2,3.4801277E1,1.5748143E1,7.59783E0,2.7172341E0,4.0831356E1,1.0106755E2,1.3688707E1,1.5102161E0,6.7658486E3,2.6936488E0,5.8272537E1,3.869061E1,2.8399837E1,1.3643423E1,6.544472E2,2.5010433E1,1.1133089E0,3.4713734E1,1.912828E1,2.2556468E2,2.6973226E0,1.7418858E1,1.15355015E1,6.530785E2,4.1596847E0,1.1160717E0,1.5914223E0,2.0386886E3,5.6455738E1,1.878298E2,3.1425677E2,5.256608E0,6.6006646E0,9.063096E2,1.9218874E0,3.2906837E1,6.3093204E1,7.0745804E1,7.3321767E0,8.00781E0,1.1061866E0,1.5729041E0,3.399115E2,2.97799E2,1.648761E1,1.042625E3,2.8547144E2,3.0358597E1,1.9346207E2,3.6281428E3,1.5601556E2,1.4668696E0,3.8837227E1,1.1257987E2,1.4799869E1,6.915614E1,6.673331E0,2.903909E2,3.934652E1,8.471396E3,1.0085132E0,1.2964129E1,4.407113E0,1.8487642E0,1.2169026E0,3.3121543E0,8.301938E0,1.1696218E0,2.80357E0,5.3172927E0,1.607516E1,4.396124E1,1.1834761E1,2.2096751E2,8.467469E1,2.2931694E1,1.0538095E0,3.3843749E0,1.9848238E1,8.638996E0,1.1994278E0,1.624804E2,6.9839325E1,1.1945695E1,2.2855583E1,5.274632E0,2.3231976E0,1.1835456E0,1.5336885E0,7.5159087E0,3.3315445E1,9.226784E1,8.799715E0,3.492344E0,6.762356E3,1.3271601E0,1.3664888E0,8.625463E0,5.0179596E0,6.4543066E2,9.016534E0,8.646903E0,2.606683E1,4.5766206E0,1.4551661E1,5.068169E0,2.2049652E2,1.0271252E0,1.6701972E0,1.2863995E1,4.554863E0,1.1072049E0,3.0524797E0],"tree_param":{"num_deleted":"0","num_feature":"32","num_nodes":"245","size_leaf_vector":"1"}},{"base_weights":[2.2639427E-2,4.9045455E-1,-1.1153259E0,8.363095E-2,9.4243884E-1,-1.3389573E0,-2.4923481E-1,7.214065E-1,-2.4449311E-1,1.0463536E0,5.5682108E-2,8.664404E-1,-1.3409644E0,4.028954E-1,-1.185468E0,-2.0119369E-1,8.101576E-1,-1.1157689E0,-1.4693749E-1,-7.757193E-2,1.1381253E0,4.440347E-1,-3.7914678E-1,1.4545184E-1,3.05273E-2,-1.3422529E0,8.99305E-1,8.856764E-1,-1.0444407E0,8.5008085E-1,-1.3179321E0,8.517291E-1,-1.1584904E0,-1.3404092E0,-5.420553E-1,-1.154654E0,-8.668834E-2,2.3899335E-2,-1.9909257E-1,-1.5635712E-1,1.1388649E0,8.2452136E-1,2.7210885E-1,-2.0197575E-1,-7.0747924E-1,-8.4128004E-1,-1.3453437E0,4.0768232E-2,1.5172528E-1,1.0097176E0,-1.949175E-1,-1.1959327E0,4.9869552E-2,1.087067E0,-2.248569E-1,1.4988005E-1,-1.3402364E0,7.822673E-1,1.0528076E0,1.3446097E-1,-1.2692041E0,-1.3451139E0,-2.854426E-2,-9.364496E-2,-1.2172068E0,-1.2705829E0,1.6365498E-1,4.032974E-3,-6.349365E-1,4.5542905E-1,-1.4738673E-1,1.139556E0,7.684568E-1,1.0321958E0,6.3542414E-1,5.831548E-1,1.6826189E-1,-3.2395703E-1,1.248832E0,-1.0974225E0,-5.532784E-1,1.7015186E-1,-2.1180093E-1,-1.3464925E0,-3.9011562E-1,5.793278E-4,1.1114649E0,1.0346184E0,-7.626246E-1,7.660509E-1,-1.2611641E0,8.052225E-1,-1.2632315E0,1.689779E-1,3.8710418E-1,-9.1813E-1,7.597299E-1,-1.3478848E0,9.160632E-2,9.139404E-1,2.704401E-1,1.0724167E0,-6.10112E-1,1.15717225E-1,-2.0049456E-1,-2.0202214E-1,-6.261668E-2,-3.4422344E-1,1.7698902E-1,-1.3010124E0,1.3144298E-1,9.9629956E-1,-1.3328111E0,-1.3838485E-1,9.253416E-1,-9.0031517E-1,2.8095126E-1,1.0097243E0,2.8967193E-1,-6.120898E-1,-3.802366E-2,1.1033937E0,1.7190629E-1,1.6154018E-1,-8.3858356E-2,1.6123231E-1,2.453657E-1,3.612131E-2,9.6106464E-1,1.7124733E-1,4.7795182E-1,1.2628065E-1,8.8758546E-1,-2.0764285E-1,-1.2002013E0,2.2106223E-1,6.7797077E-1,2.2043577E-1,-1.1893197E0,4.4911516E-1,-6.879397E-1,6.2488917E-2,-1.3469769E0,-1.7009163E-1,6.648329E-1,1.091571E0,-2.048145E-1,1.124508E0,2.1198127E-1,1.6028385E-1,2.5704166E-2,-1.2975281E0,1.7651515E-1,1.4841977E-1,-4.88741E-2,-1.2913895E0,5.4945415E-1,9.9207014E-1,-8.644379E-2,-1.9841519E-1,-5.4187097E-2,-2.1547306E-2,1.0397523E-1,-4.651397E-2,-1.7562845E-1,2.7062079E-2,1.344168E-1,-1.3507706E0,1.4090922E-2,1.4078048E-1,1.5248315E-2,1.5466806E-1,2.6446756E-2,-6.759718E-2,1.6418658E-1,1.2302254E-1,-2.8083187E-1,-8.086702E-2,6.0374416E-2,-1.9854161E-1,-5.857956E-2,3.8026437E-2,1.6322456E-1,1.1217104E-1,-2.013973E-1,-3.46765E-2,1.451304E-1,-4.0000764E-1,1.516137E-1,-1.5423897E-1,1.5756172E-1,1.8186745E-1,-1.5653004E-1,-1.440827E-1,1.6746739E-1,3.0213045E-2,1.4134024E-1,-1.1779659E-1,6.276898E-2,5.7363743E-3,-8.774533E-2,1.6984113E-1,7.7258707E-3,1.4387742E-1,-3.277934E-1,-6.631879E-2,9.4440944E-2,2.5719788E-2,-1.06780544E-1,1.4823124E-1,4.1915637E-2,5.3338993E-2,1.6502135E-1,2.5173659E-2,-7.037026E-2,1.5913983E-1,-3.7888612E-3,-4.1029815E-2,1.8672356E-1,-1.987243E-1,-1.5060431E-2,1.8788189E-1,-7.61089E-2,-1.6969921E-2,7.755168E-2,-9.151857E-2,-1.9520067E-1,1.968144E-1,-7.986849E-2,-8.417234E-2,-2.1681626E-1,-2.0222275E-1,-1.6423126E-1,-3.87928E-3,1.336752E-1,6.534631E-2,1.6784705E-1,1.6937187E-1,1.1671366E-1,1.5030885E-1,-1.3308907E-1,-2.4236985E-1,-1.2518726E-1,-1.7357494E-1,9.617826E-2,-2.0314257E-1,-1.0815361E-1,-3.5082355E-2,1.3812423E-1,1.7540056E-1,-1.5846986E-2,-1.0661597E-1,-2.0308393E-1],"categories":[],"categories_nodes":[],"categories_segments":[],"categories_sizes":[],"default_left":[0,0,0,0,0,0,0,0,0,0,0,0,0,0,0,0,0,0,0,0,0,0,0,0,0,0,0,0,0,0,0,0,0,0,0,0,0,0,0,0,0,0,0,0,0,0,0,0,0,0,0,0,0,0,0,0,0,0,0,0,0,0,0,0,0,0,0,0,0,0,0,0,0,0,0,0,0,0,0,0,0,0,0,0,0,0,0,0,0,0,0,0,0,0,0,0,0,0,0,0,0,0,0,0,0,0,0,0,0,0,0,0,0,0,0,0,0,0,0,0,0,0,0,0,0,0,0,0,0,0,0,0,0,0,0,0,0,0,0,0,0,0,0,0,0,0,0,0,0,0,0,0,0,0,0,0,0,0,0,0,0,0,0,0,0,0,0,0,0,0,0,0,0,0,0,0,0,0,0,0,0,0,0,0,0,0,0,0,0,0,0,0,0,0,0,0,0,0,0,0,0,0,0,0,0,0,0,0,0,0,0,0,0,0,0,0,0,0,0,0,0,0,0,0,0,0,0,0,0,0,0,0,0,0,0,0,0,0,0,0,0,0,0,0,0,0,0,0,0,0,0,0,0],"id":6,"left_children":[1,3,5,7,9,11,13,15,17,19,21,23,25,27,29,-1,31,33,35,37,39,41,43,-1,-1,45,47,49,51,53,55,57,59,61,63,65,67,69,-1,-1,71,73,75,77,79,81,83,-1,-1,85,87,89,91,93,95,-1,97,99,101,-1,103,105,-1,107,109,111,-1,113,115,117,119,121,123,125,127,129,131,133,135,137,139,-1,-1,141,143,145,147,149,151,153,155,157,159,-1,161,163,165,167,-1,169,171,173,175,-1,-1,-1,-1,177,-1,179,-1,181,183,185,187,189,191,193,195,197,199,201,-1,-1,203,-1,205,207,209,-1,211,213,215,217,219,-1,221,223,225,227,229,-1,231,-1,233,235,-1,237,239,-1,-1,241,243,-1,-1,245,247,249,-1,-1,-1,-1,-1,-1,-1,-1,-1,251,-1,-1,-1,-1,-1,-1,-1,-1,-1,-1,-1,-1,-1,-1,-1,-1,-1,-1,-1,-1,-1,-1,-1,-1,-1,-1,-1,-1,-1,-1,-1,-1,-1,-1,-1,-1,-1,-1,-1,-1,-1,-1,-1,-1,-1,-1,-1,-1,-1,-1,-1,-1,-1,-1,-1,-1,-1,-1,-1,-1,-1,-1,-1,-1,-1,-1,-1,-1,-1,-1,-1,-1,-1,-1,-1,-1,-1,-1,-1,-1,-1,-1,-1,-1,-1],"loss_changes":[1.4337522E4,3.5093975E3,1.5193584E3,2.102471E3,8.330469E2,2.8764648E1,9.8432056E2,6.258783E2,5.6370776E2,8.348008E2,1.6049065E2,2.3227549E-1,1.919043E1,6.651303E2,1.7957922E2,0E0,2.6882788E2,8.534515E1,3.621871E2,7.7619156E1,1.3251953E1,3.2611725E1,2.5943207E1,0E0,0E0,8.510742E0,1.9379377E-2,9.581189E1,3.955237E1,1.0700804E1,3.3475098E1,4.395044E1,1.6631874E1,2.3371582E0,5.7285736E1,8.900433E1,2.8010355E2,4.196771E1,0E0,0E0,1.0390625E0,5.4598007E0,1.1117825E1,5.219829E1,8.819397E0,4.766751E1,6.2646484E0,0E0,0E0,6.5717896E1,5.264536E1,2.775241E1,3.0701958E1,4.974022E-1,6.3242574E0,0E0,1.0019409E1,1.6058716E2,2.7398499E1,0E0,9.979767E0,1.9042969E-1,0E0,3.711026E1,1.4401123E1,4.6537903E1,0E0,6.342664E2,1.9459604E2,1.4529171E1,2.0638493E1,4.8535156E-1,4.560361E0,2.1752777E0,1.638057E1,4.5370083E0,7.791505E0,2.7346828E1,1.9416809E0,5.5193634E0,1.5745918E1,0E0,0E0,5.8378906E0,7.6910014E0,9.034771E1,6.58313E0,5.1688385E-1,2.6049719E1,2.117022E0,1.1815704E1,5.63371E0,1.2996864E-1,0E0,6.400467E-1,4.498253E-1,1.50666E-1,2.682373E0,0E0,3.781958E1,3.4884567E1,2.7865051E1,1.9940664E1,0E0,0E0,0E0,0E0,1.4315544E1,0E0,9.866791E-1,0E0,3.474779E-1,7.397461E0,4.298724E2,2.012685E2,1.5586914E2,2.2382507E2,8.796616E0,7.0429773E0,1.414287E1,1.3794951E1,3.5240112E1,0E0,0E0,1.4032791E1,0E0,1.6078072E0,3.225187E0,7.3147583E-1,0E0,5.2815456E0,6.2245417E0,2.2843285E0,2.333215E1,4.18734E0,0E0,6.3059397E0,